{"learner":{"attributes":{"best_iteration":"105","best_ntree_limit":"106"},"feature_names":["dspb","dnase","prok","reaction_time"],"feature_types":[],"gradient_booster":{"model":{"gbtree_model_param":{"num_parallel_tree":"1","num_trees":"106","size_leaf_vector":"0"},"tree_info":[0,0,0,0,0,0,0,0,0,0,0,0,0,0,0,0,0,0,0,0,0,0,0,0,0,0,0,0,0,0,0,0,0,0,0,0,0,0,0,0,0,0,0,0,0,0,0,0,0,0,0,0,0,0,0,0,0,0,0,0,0,0,0,0,0,0,0,0,0,0,0,0,0,0,0,0,0,0,0,0,0,0,0,0,0,0,0,0,0,0,0,0,0,0,0,0,0,0,0,0,0,0,0,0,0,0],"trees":[{"base_weights":[-3.702747E-1,-5.1714224E-1,-3.047214E-1,-5.842891E-1,-4.555134E-1,-3.687419E-1,-2.438011E-1,-3.5423774E-1,-4.6985394E-1,-2.3566057E-1,-4.028722E-1,-3.8212582E-1,-3.2870921E-1,-2.684532E-1,-3.4273612E-1],"categories":[],"categories_nodes":[],"categories_segments":[],"categories_sizes":[],"default_left":[1,1,1,0,0,1,1,1,0,0,0,0,1,0,0],"id":0,"left_children":[1,3,5,-1,-1,7,9,11,-1,-1,-1,-1,13,-1,-1],"loss_changes":[2.3394547E0,2.654953E-1,6.3824177E-1,0E0,0E0,8.300018E-2,8.404207E-2,1.861763E-2,0E0,0E0,0E0,0E0,4.328251E-3,0E0,0E0],"parents":[2147483647,0,0,1,1,2,2,5,5,6,6,7,7,12,12],"right_children":[2,4,6,-1,-1,8,10,12,-1,-1,-1,-1,14,-1,-1],"split_conditions":[1.05E1,7.5E0,1.8E1,-8.978072E-2,-6.9993295E-2,7.5E-1,7.5E-1,1.25E-1,-7.219684E-2,-3.6211144E-2,-6.1904557E-2,-5.8716707E-2,2.916667E-1,-4.1249998E-2,-5.2664164E-2],"split_indices":[3,3,3,0,0,2,2,2,0,0,0,0,2,0,0],"split_type":[0,0,0,0,0,0,0,0,0,0,0,0,0,0,0],"sum_hessian":[2.47E2,7.6E1,1.71E2,3.6E1,4E1,8.3E1,8.8E1,7.3E1,1E1,8.4E1,4E0,3.4E1,3.9E1,8E0,3.1E1],"tree_param":{"num_deleted":"0","num_feature":"4","num_nodes":"15","size_leaf_vector":"0"}},{"base_weights":[-3.0878937E-1,-4.410222E-1,-2.5620794E-1,-4.85428E-1,-3.9532873E-1,-3.066196E-1,-2.089481E-1,-3.6911133E-1,-4.4598266E-1,-3.529545E-1,-2.789638E-1,-2.3979688E-1,-1.9574772E-1,-2.576491E-1,-3.2633513E-1,-2.806912E-1,-1.9553909E-1],"categories":[],"categories_nodes":[],"categories_segments":[],"categories_sizes":[],"default_left":[1,1,1,0,1,1,1,0,0,0,1,1,0,0,0,0,0],"id":1,"left_children":[1,3,5,-1,7,9,11,-1,-1,-1,13,15,-1,-1,-1,-1,-1],"loss_changes":[1.7820587E0,1.08727455E-1,4.2140388E-1,0E0,1.0835648E-2,8.5715294E-2,1.9144535E-2,0E0,0E0,0E0,3.0204773E-2,2.8414369E-2,0E0,0E0,0E0,0E0,0E0],"parents":[2147483647,0,0,1,1,2,2,4,4,5,5,6,6,10,10,11,11],"right_children":[2,4,6,-1,8,10,12,-1,-1,-1,14,16,-1,-1,-1,-1,-1],"split_conditions":[1.05E1,7.5E0,1.8E1,-7.458992E-2,6.666667E-1,1.25E-1,1.25E-1,-5.6716926E-2,-6.852882E-2,-5.42343E-2,7.5E-1,3.6E1,-3.0078212E-2,-3.9589856E-2,-5.014402E-2,-4.313046E-2,-3.0046154E-2],"split_indices":[3,3,3,0,1,1,1,0,0,0,1,3,0,0,0,0,0],"split_type":[0,0,0,0,0,0,0,0,0,0,0,0,0,0,0,0,0],"sum_hessian":[2.61E2,7.4E1,1.87E2,3.7E1,3.7E1,9E1,9.7E1,2.5E1,1.2E1,3.3E1,5.7E1,2.8E1,6.9E1,4E1,1.7E1,1.4E1,1.4E1],"tree_param":{"num_deleted":"0","num_feature":"4","num_nodes":"17","size_leaf_vector":"0"}},{"base_weights":[-2.6205105E-1,-3.7811595E-1,-2.2227019E-1,-4.0566412E-1,-3.3962783E-1,-2.622186E-1,-1.7957973E-1,-4.277439E-1,-3.511681E-1,-3.056837E-1,-3.84692E-1,-2.8632E-1,-2.4862935E-1,-2.0628549E-1,-1.6915676E-1,-2.0561396E-1,-2.5698507E-1,-2.2493412E-1,-1.6312082E-1],"categories":[],"categories_nodes":[],"categories_segments":[],"categories_sizes":[],"default_left":[1,1,1,1,1,1,1,0,0,0,0,0,1,1,0,0,0,0,0],"id":2,"left_children":[1,3,5,7,9,11,13,-1,-1,-1,-1,-1,15,17,-1,-1,-1,-1,-1],"loss_changes":[1.1169567E0,3.1809807E-2,2.9485798E-1,6.7358017E-3,8.92067E-3,6.0768127E-3,7.5204372E-3,0E0,0E0,0E0,0E0,0E0,6.5660477E-4,1.1985302E-3,0E0,0E0,0E0,0E0,0E0],"parents":[2147483647,0,0,1,1,2,2,3,3,4,4,5,5,6,6,12,12,13,13],"right_children":[2,4,6,8,10,12,14,-1,-1,-1,-1,-1,16,18,-1,-1,-1,-1,-1],"split_conditions":[1.05E1,7.5E0,1.8E1,6.666667E-1,1.6666667E-1,1.25E-1,1.25E-1,-6.5726295E-2,-5.3959806E-2,-4.6970762E-2,-5.9111025E-2,-4.3995373E-2,2.916667E-1,3.6E1,-2.5992297E-2,-3.159424E-2,-3.9487824E-2,-3.4562938E-2,-2.5064826E-2],"split_indices":[3,3,3,1,1,1,1,0,0,0,0,0,1,3,0,0,0,0,0],"split_type":[0,0,0,0,0,0,0,0,0,0,0,0,0,0,0,0,0,0,0],"sum_hessian":[2.48E2,6.3E1,1.85E2,3.6E1,2.7E1,9.5E1,9E1,2.5E1,1.1E1,1.6E1,1.1E1,3.3E1,6.2E1,2.4E1,6.6E1,1.1E1,5.1E1,1.6E1,8E0],"tree_param":{"num_deleted":"0","num_feature":"4","num_nodes":"19","size_leaf_vector":"0"}},{"base_weights":[-2.2546726E-1,-2.7172562E-1,-1.4547144E-1,-3.6093E-1,-2.446617E-1,-1.6481733E-1,-1.3761623E-1,-2.7132484E-1,-2.3093231E-1,-1.8710175E-1,-1.244779E-1,-2.5796425E-1,-2.1106811E-1,-1.7424835E-1,-2.2273584E-1,-2.6363635E-1,-1.9861904E-1,-1.6431417E-1,-2.2900935E-1],"categories":[],"categories_nodes":[],"categories_segments":[],"categories_sizes":[],"default_left":[1,1,1,0,1,1,0,0,1,0,0,0,1,0,1,0,1,0,0],"id":3,"left_children":[1,3,5,-1,7,9,-1,-1,11,-1,-1,-1,13,-1,15,-1,17,-1,-1],"loss_changes":[9.4634914E-1,3.6998558E-1,4.813671E-4,0E0,2.2994518E-2,8.840501E-3,0E0,0E0,2.3712158E-2,0E0,0E0,0E0,2.9380322E-3,0E0,1.4887691E-2,0E0,6.6536665E-3,0E0,0E0],"parents":[2147483647,0,0,1,1,2,2,4,4,5,5,8,8,12,12,14,14,16,16],"right_children":[2,4,6,-1,8,10,-1,-1,12,-1,-1,-1,14,-1,16,-1,18,-1,-1],"split_conditions":[1.8E1,7.5E0,1.25E-1,-5.5459797E-2,1.05E1,3.6E1,-2.1145841E-2,-4.1691247E-2,1.25E-1,-2.874969E-2,-1.9127032E-2,-3.9638285E-2,2.916667E-1,-2.6774662E-2,4.166667E-1,-4.0509846E-2,7.5E-1,-2.5248194E-2,-3.518913E-2],"split_indices":[3,3,1,0,3,3,0,0,1,0,0,0,1,0,1,0,1,0,0],"split_type":[0,0,0,0,0,0,0,0,0,0,0,0,0,0,0,0,0,0,0],"sum_hessian":[2.61E2,1.65E2,9.6E1,3.8E1,1.27E2,2.6E1,7E1,4.2E1,8.5E1,1.6E1,1E1,3.5E1,5E1,1.3E1,3.7E1,1.3E1,2.4E1,1.2E1,1.2E1],"tree_param":{"num_deleted":"0","num_feature":"4","num_nodes":"19","size_leaf_vector":"0"}},{"base_weights":[-2.0029162E-1,-1.8845871E-1,-2.6182786E-1,-2.0161965E-1,-1.3857572E-1,-1.8917848E-1,-2.3870568E-1,-2.0912026E-1,-1.20861925E-1,-1.8481304E-1,-2.3616369E-1,-2.0513321E-1,-9.479253E-2],"categories":[],"categories_nodes":[],"categories_segments":[],"categories_sizes":[],"default_left":[1,1,0,1,0,1,0,1,0,1,0,0,0],"id":4,"left_children":[1,3,-1,5,-1,7,-1,9,-1,11,-1,-1,-1],"loss_changes":[1.6244984E-1,1.2330532E-1,0E0,5.7058334E-2,0E0,1.5626574E-1,0E0,4.4094086E-2,0E0,8.1142545E-2,0E0,0E0,0E0],"parents":[2147483647,0,0,1,1,3,3,5,5,7,7,9,9],"right_children":[2,4,-1,6,-1,8,-1,10,-1,12,-1,-1,-1],"split_conditions":[7.5E-1,4.166667E-1,-4.0231958E-2,7.5E-1,-2.1293275E-2,4.166667E-1,-3.6679048E-2,2.916667E-1,-1.8571407E-2,1.25E-1,-3.628845E-2,-3.152037E-2,-1.45656355E-2],"split_indices":[2,2,0,0,0,0,0,0,0,0,0,0,0],"split_type":[0,0,0,0,0,0,0,0,0,0,0,0,0],"sum_hessian":[2.52E2,2.12E2,4E1,1.67E2,4.5E1,1.26E2,4.1E1,9.7E1,2.9E1,5.2E1,4.5E1,4.2E1,1E1],"tree_param":{"num_deleted":"0","num_feature":"4","num_nodes":"13","size_leaf_vector":"0"}},{"base_weights":[-1.7001292E-1,-1.9480199E-1,-1.5627412E-1,-2.1463172E-1,-1.7839509E-1,-9.196236E-2,-1.6750483E-1,-1.15354046E-1,-1.9927938E-1,-2.0212768E-1,-1.4872637E-1,-1.1523541E-1,-1.7775293E-1],"categories":[],"categories_nodes":[],"categories_segments":[],"categories_sizes":[],"default_left":[1,1,1,0,1,0,1,0,0,0,1,0,0],"id":5,"left_children":[1,3,5,-1,7,-1,9,-1,-1,-1,11,-1,-1],"loss_changes":[6.977701E-2,1.05986595E-2,1.0636139E-1,0E0,5.115676E-2,0E0,7.3997736E-2,0E0,0E0,0E0,7.4802876E-2,0E0,0E0],"parents":[2147483647,0,0,1,1,2,2,4,4,6,6,10,10],"right_children":[2,4,6,-1,8,-1,10,-1,-1,-1,12,-1,-1],"split_conditions":[1.25E-1,2.5E-1,2.916667E-1,-3.297989E-2,7.5E-1,-1.4130756E-2,4.166667E-1,-1.7725078E-2,-3.062088E-2,-3.1058544E-2,7.5E-1,-1.7706849E-2,-2.7313167E-2],"split_indices":[1,0,1,0,0,0,1,0,0,0,1,0,0],"split_type":[0,0,0,0,0,0,0,0,0,0,0,0,0],"sum_hessian":[2.53E2,8.9E1,1.64E2,3.9E1,5E1,2.5E1,1.39E2,1.3E1,3.7E1,4.8E1,9.1E1,4.3E1,4.8E1],"tree_param":{"num_deleted":"0","num_feature":"4","num_nodes":"13","size_leaf_vector":"0"}},{"base_weights":[-1.3420722E-1,-2.0308657E-1,-1.0341459E-1,-2.2674027E-1,-1.8169284E-1,-1.3373896E-1,-7.5219154E-2,-2.4085507E-1,-1.791769E-1,-9.015814E-2,-6.956306E-2,-1.19552486E-1,-5.3848814E-2,-4.9466334E-2,-8.296781E-2,-2.658349E-2,-7.065696E-2,-9.04574E-2,-4.718538E-2,-8.3483145E-2,-2.6953507E-2],"categories":[],"categories_nodes":[],"categories_segments":[],"categories_sizes":[],"default_left":[1,1,1,1,0,0,1,0,0,1,1,0,0,1,1,0,1,0,0,0,0],"id":6,"left_children":[1,3,5,7,-1,-1,9,-1,-1,11,13,-1,-1,15,17,-1,19,-1,-1,-1,-1],"loss_changes":[5.244417E-1,2.0391464E-2,1.4075172E-1,4.544735E-3,0E0,0E0,3.387928E-4,0E0,0E0,1.6479656E-2,1.2426883E-2,0E0,0E0,9.54216E-3,4.3163E-3,0E0,2.714008E-3,0E0,0E0,0E0,0E0],"parents":[2147483647,0,0,1,1,2,2,3,3,6,6,9,9,10,10,13,13,14,14,16,16],"right_children":[2,4,6,8,-1,-1,10,-1,-1,12,14,-1,-1,16,18,-1,20,-1,-1,-1,-1],"split_conditions":[1.05E1,7.5E0,1.8E1,6.666667E-1,-2.7918566E-2,-2.0550068E-2,1.25E-1,-3.700932E-2,-2.7531972E-2,3.6E1,4.166667E-1,-1.8370202E-2,-8.274304E-3,3.6E1,7.5E-1,-4.0847673E-3,2.916667E-1,-1.3899508E-2,-7.2504133E-3,-1.2827857E-2,-4.141623E-3],"split_indices":[3,3,3,0,0,0,0,0,0,3,0,0,0,3,0,0,0,0,0,0,0],"split_type":[0,0,0,0,0,0,0,0,0,0,0,0,0,0,0,0,0,0,0,0,0],"sum_hessian":[2.54E2,7.8E1,1.76E2,3.6E1,4.2E1,8.4E1,9.2E1,2.7E1,9E0,2.3E1,6.9E1,1.2E1,1.1E1,2.9E1,4E1,1.5E1,1.4E1,3.2E1,8E0,1E1,4E0],"tree_param":{"num_deleted":"0","num_feature":"4","num_nodes":"21","size_leaf_vector":"0"}},{"base_weights":[-1.1169779E-1,-1.2842317E-1,-1.0015886E-1,-5.589499E-2,-1.09136425E-1,-1.1310388E-1,-6.855068E-2,-1.2602238E-1,-1.0545683E-1,-7.293447E-2,-1.2393262E-1],"categories":[],"categories_nodes":[],"categories_segments":[],"categories_sizes":[],"default_left":[1,0,1,0,1,1,0,0,1,0,0],"id":7,"left_children":[1,-1,3,-1,5,7,-1,-1,9,-1,-1],"loss_changes":[3.74043E-2,0E0,5.1529646E-2,0E0,1.1348367E-2,1.7881393E-4,0E0,0E0,3.4096897E-2,0E0,0E0],"parents":[2147483647,0,0,2,2,4,4,5,5,8,8],"right_children":[2,-1,4,-1,6,8,-1,-1,10,-1,-1],"split_conditions":[1.25E-1,-1.9733254E-2,2.916667E-1,-8.5887145E-3,4.166667E-1,4.166667E-1,-1.05333645E-2,-1.9364353E-2,7.5E-1,-1.1206969E-2,-1.9043244E-2],"split_indices":[0,0,0,0,2,0,0,0,0,0,0],"split_type":[0,0,0,0,0,0,0,0,0,0,0],"sum_hessian":[2.49E2,1E2,1.49E2,2.6E1,1.23E2,1.11E2,1.2E1,3.9E1,7.2E1,2.7E1,4.5E1],"tree_param":{"num_deleted":"0","num_feature":"4","num_nodes":"11","size_leaf_vector":"0"}},{"base_weights":[-1.00474924E-1,-1.6829814E-1,-6.993903E-2,-1.9621477E-1,-1.3186355E-1,-9.390566E-2,-4.9691875E-2,-1.1371637E-1,-1.7907953E-1,-5.323073E-2,-2.3247229E-2,-5.393199E-2,-0E0],"categories":[],"categories_nodes":[],"categories_segments":[],"categories_sizes":[],"default_left":[1,1,1,0,1,0,1,0,0,0,1,0,0],"id":8,"left_children":[1,3,5,-1,7,-1,9,-1,-1,-1,11,-1,-1],"loss_changes":[5.1909566E-1,6.5048456E-2,7.9209745E-2,0E0,1.6337633E-2,0E0,5.522594E-3,0E0,0E0,0E0,1.0432778E-2,0E0,0E0],"parents":[2147483647,0,0,1,1,2,2,4,4,6,6,10,10],"right_children":[2,4,6,-1,8,-1,10,-1,-1,-1,12,-1,-1],"split_conditions":[1.05E1,7.5E0,1.8E1,-3.0149978E-2,6.666667E-1,-1.442936E-2,7.5E-1,-1.7473435E-2,-2.7517011E-2,-8.17933E-3,3.6E1,-8.287084E-3,-0E0],"split_indices":[3,3,3,0,1,0,1,0,0,0,3,0,0],"split_type":[0,0,0,0,0,0,0,0,0,0,0,0,0],"sum_hessian":[2.56E2,7.9E1,1.77E2,4.4E1,3.5E1,8E1,9.7E1,2.6E1,9E0,8.4E1,1.3E1,6E0,7E0],"tree_param":{"num_deleted":"0","num_feature":"4","num_nodes":"13","size_leaf_vector":"0"}},{"base_weights":[-7.7825725E-2,-7.194964E-2,-1.1700756E-1,-7.858585E-2,-6.5905385E-2,-4.244202E-2,-7.3991045E-2,-8.6025E-2,-6.146631E-2],"categories":[],"categories_nodes":[],"categories_segments":[],"categories_sizes":[],"default_left":[1,1,0,0,1,0,1,0,0],"id":9,"left_children":[1,3,-1,-1,5,-1,7,-1,-1],"loss_changes":[5.1293254E-2,2.4206638E-3,0E0,0E0,1.79196E-2,0E0,6.7010224E-3,0E0,0E0],"parents":[2147483647,0,0,1,1,4,4,6,6],"right_children":[2,4,-1,-1,6,-1,8,-1,-1],"split_conditions":[7.5E-1,1.25E-1,-1.7979153E-2,-1.2075348E-2,2.916667E-1,-6.521558E-3,4.166667E-1,-1.3218434E-2,-9.444793E-3],"split_indices":[2,2,0,0,2,0,2,0,0],"split_type":[0,0,0,0,0,0,0,0,0],"sum_hessian":[2.61E2,2.28E2,3.3E1,1.05E2,1.23E2,3.3E1,9E1,4.4E1,4.6E1],"tree_param":{"num_deleted":"0","num_feature":"4","num_nodes":"9","size_leaf_vector":"0"}},{"base_weights":[-7.537217E-2,-9.819211E-2,-6.3762926E-2,-6.767385E-2,-4.3047026E-2],"categories":[],"categories_nodes":[],"categories_segments":[],"categories_sizes":[],"default_left":[1,0,1,0,0],"id":10,"left_children":[1,-1,3,-1,-1],"loss_changes":[6.266606E-2,0E0,9.190261E-3,0E0,0E0],"parents":[2147483647,0,0,2,2],"right_children":[2,-1,4,-1,-1],"split_conditions":[1.25E-1,-1.5088008E-2,4.166667E-1,-1.0398631E-2,-6.614522E-3],"split_indices":[0,0,1,0,0],"split_type":[0,0,0,0,0],"sum_hessian":[2.65E2,8.8E1,1.77E2,1.47E2,3E1],"tree_param":{"num_deleted":"0","num_feature":"4","num_nodes":"5","size_leaf_vector":"0"}},{"base_weights":[-6.765966E-2,-1.3902198E-1,-5.2338876E-2,-6.772224E-2,-2.71435E-2,-5.565257E-2,-7.7686325E-2,-1.7932609E-2,-4.448382E-2,-6.97672E-2,-4.7974743E-2,-1.05000414E-1,-6.1726682E-2,-3.422004E-2,-0E0,-2.6113054E-2,-6.53011E-2,-3.851561E-2,-0E0,2.0476611E-2,-1.705107E-2,-2.580287E-3,-7.917934E-2,-1.8152291E-2,-0E0],"categories":[],"categories_nodes":[],"categories_segments":[],"categories_sizes":[],"default_left":[1,0,1,1,1,1,1,1,1,0,0,0,0,1,1,1,0,0,0,0,1,0,0,0,0],"id":11,"left_children":[1,-1,3,5,7,9,11,13,15,-1,-1,-1,-1,17,19,21,-1,-1,-1,-1,23,-1,-1,-1,-1],"loss_changes":[2.6661384E-1,0E0,7.620877E-2,9.1894865E-3,9.877007E-3,1.0250062E-3,2.1882921E-2,1.6596405E-2,5.6939647E-3,0E0,0E0,0E0,0E0,4.61128E-3,8.813044E-3,1.493759E-2,0E0,0E0,0E0,0E0,1.7456594E-4,0E0,0E0,0E0,0E0],"parents":[2147483647,0,0,2,2,3,3,4,4,5,5,6,6,7,7,8,8,13,13,14,14,15,15,20,20],"right_children":[2,-1,4,6,8,10,12,14,16,-1,-1,-1,-1,18,20,22,-1,-1,-1,-1,24,-1,-1,-1,-1],"split_conditions":[7.5E0,-2.1361846E-2,1.8E1,2.916667E-1,4.166667E-1,1.05E1,4.166667E-1,3.6E1,3.6E1,-1.0720291E-2,-7.3717055E-3,-1.6134158E-2,-9.484801E-3,2.916667E-1,1.25E-1,7.5E-1,-1.003404E-2,-5.918233E-3,-0E0,3.146396E-3,2.916667E-1,-3.9648186E-4,-1.2166543E-2,-2.7892457E-3,-0E0],"split_indices":[3,0,3,2,2,3,2,3,3,0,0,0,0,2,2,2,0,0,0,0,2,0,0,0,0],"split_type":[0,0,0,0,0,0,0,0,0,0,0,0,0,0,0,0,0,0,0,0,0,0,0,0,0],"sum_hessian":[2.52E2,4.4E1,2.08E2,1.28E2,8E1,6E1,6.8E1,5.4E1,2.6E1,1.9E1,4.1E1,2.4E1,4.4E1,2.9E1,2.5E1,1.5E1,1.1E1,2.6E1,3E0,1.2E1,1.3E1,1.1E1,4E0,1.2E1,1E0],"tree_param":{"num_deleted":"0","num_feature":"4","num_nodes":"25","size_leaf_vector":"0"}},{"base_weights":[-5.6413203E-2,-1.1674465E-1,-4.446049E-2,-5.774947E-2,-2.4234582E-2,-6.848509E-2,-5.2399877E-2,-9.038748E-3,-4.3302868E-2,-8.42255E-2,-1.3463486E-2,-4.246083E-2,-6.1966296E-2,-1.1796495E-2,-0E0,-2.5642758E-2,-6.341781E-2,-4.732341E-2,-1.6222864E-2,-5.117016E-3,-1.9278176E-2,-8.1985E-3,-6.4398855E-2,-1.199542E-2,-0E0],"categories":[],"categories_nodes":[],"categories_segments":[],"categories_sizes":[],"default_left":[1,0,1,1,1,1,1,1,1,0,0,1,0,1,0,1,0,0,0,1,0,0,0,0,0],"id":12,"left_children":[1,-1,3,5,7,9,11,13,15,-1,-1,17,-1,19,-1,21,-1,-1,-1,23,-1,-1,-1,-1,-1],"loss_changes":[1.8720436E-1,0E0,5.693394E-2,2.1292567E-3,2.393682E-2,3.1836867E-2,3.985673E-3,1.7355736E-3,9.714298E-3,0E0,0E0,3.170982E-3,0E0,1.01574E-3,0E0,1.15022985E-2,0E0,0E0,0E0,9.0233213E-4,0E0,0E0,0E0,0E0,0E0],"parents":[2147483647,0,0,2,2,3,3,4,4,5,5,6,6,7,7,8,8,11,11,13,13,15,15,19,19],"right_children":[2,-1,4,6,8,10,12,14,16,-1,-1,18,-1,20,-1,22,-1,-1,-1,24,-1,-1,-1,-1,-1],"split_conditions":[7.5E0,-1.7938755E-2,1.8E1,1.05E1,4.166667E-1,6.666667E-1,2.916667E-1,2.916667E-1,3.6E1,-1.2941926E-2,-2.068773E-3,1.25E-1,-9.52162E-3,1.25E-1,-0E0,7.5E-1,-9.744656E-3,-7.271623E-3,-2.4927736E-3,3.6E1,-2.962247E-3,-1.2597655E-3,-9.895402E-3,-1.8431928E-3,-0E0],"split_indices":[3,0,3,3,2,2,2,2,3,0,0,2,0,2,0,2,0,0,0,3,0,0,0,0,0],"split_type":[0,0,0,0,0,0,0,0,0,0,0,0,0,0,0,0,0,0,0,0,0,0,0,0,0],"sum_hessian":[2.7E2,4.4E1,2.26E2,1.35E2,9.1E1,4.2E1,9.3E1,5.2E1,3.9E1,3.2E1,1E1,4.8E1,4.5E1,4.3E1,9E0,2.2E1,1.7E1,3.9E1,9E0,2.6E1,1.7E1,1.6E1,6E0,1.1E1,1.5E1],"tree_param":{"num_deleted":"0","num_feature":"4","num_nodes":"25","size_leaf_vector":"0"}},{"base_weights":[-4.712119E-2,-7.8949265E-2,-3.255453E-2,-9.4510384E-2,-5.960395E-2,-4.326567E-2,-2.15644E-2,-5.4462396E-2,-3.101079E-2,-2.511343E-2,-6.819205E-3,-3.424893E-2,-1.5193514E-2,-4.49841E-2,-1.9264037E-2,4.656424E-3,-2.578458E-2],"categories":[],"categories_nodes":[],"categories_segments":[],"categories_sizes":[],"default_left":[1,1,1,0,0,1,1,0,0,1,0,1,1,0,0,0,0],"id":13,"left_children":[1,3,5,-1,-1,7,9,-1,-1,11,-1,13,15,-1,-1,-1,-1],"loss_changes":[1.144318E-1,1.6910642E-2,1.7940432E-2,0E0,0E0,8.1009865E-3,3.2264143E-3,0E0,0E0,4.046187E-3,0E0,2.483584E-3,8.550518E-3,0E0,0E0,0E0,0E0],"parents":[2147483647,0,0,1,1,2,2,5,5,6,6,9,9,11,11,12,12],"right_children":[2,4,6,-1,-1,8,10,-1,-1,12,-1,14,16,-1,-1,-1,-1],"split_conditions":[1.05E1,7.5E0,2.916667E-1,-1.45222815E-2,-9.158626E-3,1.8E1,7.5E-1,-8.368585E-3,-4.7650575E-3,1.8E1,-1.0478257E-3,4.166667E-1,4.166667E-1,-6.9121686E-3,-2.9600742E-3,7.15497E-4,-3.9620083E-3],"split_indices":[3,3,0,0,0,3,0,0,0,3,0,0,0,0,0,0,0],"split_type":[0,0,0,0,0,0,0,0,0,0,0,0,0,0,0,0,0],"sum_hessian":[2.58E2,8E1,1.78E2,4.3E1,3.7E1,8.8E1,9E1,4.4E1,4.4E1,7E1,2E1,3.4E1,3.6E1,1.8E1,1.6E1,1.1E1,2.5E1],"tree_param":{"num_deleted":"0","num_feature":"4","num_nodes":"17","size_leaf_vector":"0"}},{"base_weights":[-3.6030777E-2,-4.5690108E-2,-2.9953048E-2,-1.5573863E-2,-3.3330124E-2,-3.831216E-2,-2.8464532E-2,-1.01824775E-2,-3.21394E-2],"categories":[],"categories_nodes":[],"categories_segments":[],"categories_sizes":[],"default_left":[1,0,1,0,1,0,1,0,0],"id":14,"left_children":[1,-1,3,-1,5,-1,7,-1,-1],"loss_changes":[1.1981845E-2,0E0,5.7397783E-3,0E0,7.125735E-5,0E0,2.8037913E-3,0E0,0E0],"parents":[2147483647,0,0,2,2,4,4,6,6],"right_children":[2,-1,4,-1,6,-1,8,-1,-1],"split_conditions":[1.25E-1,-7.0206528E-3,2.916667E-1,-2.3930494E-3,1.25E-1,-5.8869715E-3,2.916667E-1,-1.5646196E-3,-4.938477E-3],"split_indices":[1,0,1,0,2,0,2,0,0],"split_type":[0,0,0,0,0,0,0,0,0],"sum_hessian":[2.64E2,9.9E1,1.65E2,3.4E1,1.31E2,6E1,7.1E1,1.4E1,5.7E1],"tree_param":{"num_deleted":"0","num_feature":"4","num_nodes":"9","size_leaf_vector":"0"}},{"base_weights":[-3.4695316E-2,-4.9381565E-2,-3.8047798E-3,-6.875921E-2,-4.3117847E-2,-6.6515086E-3,1.565013E-2,-5.3850904E-2,-1.0583333E-1,-4.7823247E-2,-3.0668799E-2,4.7346526E-3,-1.1704965E-2,-0E0,4.8955422E-2,-2.3615744E-3,-3.9431702E-2,-0E0,1.7338041E-2,-5.652379E-3,-1.9065151E-2,-1.7302288E-2,-5.968292E-2,-1.8247714E-2,9.184326E-3,-0E0,-4.6381745E-2],"categories":[],"categories_nodes":[],"categories_segments":[],"categories_sizes":[],"default_left":[1,1,1,1,1,1,1,0,0,0,1,1,1,0,0,0,1,0,0,1,0,0,0,1,0,0,0],"id":15,"left_children":[1,3,5,7,9,11,13,-1,-1,-1,15,17,19,-1,-1,-1,21,-1,-1,23,-1,-1,-1,25,-1,-1,-1],"loss_changes":[1.07317746E-1,1.4580578E-2,3.9577526E-3,1.3572738E-2,3.6729425E-3,4.4093356E-3,5.2363556E-3,0E0,0E0,0E0,7.237375E-3,1.6790908E-3,1.1683633E-3,0E0,0E0,0E0,8.522924E-3,0E0,0E0,6.401847E-3,0E0,0E0,0E0,8.737221E-3,0E0,0E0,0E0],"parents":[2147483647,0,0,1,1,2,2,3,3,4,4,5,5,6,6,10,10,11,11,12,12,16,16,19,19,23,23],"right_children":[2,4,6,8,10,12,14,-1,-1,-1,16,18,20,-1,-1,-1,22,-1,-1,24,-1,-1,-1,26,-1,-1,-1],"split_conditions":[1.8E1,7.5E0,7.5E-1,6.666667E-1,4.166667E-1,1.25E-1,3.6E1,-8.274625E-3,-1.6262142E-2,-7.3484266E-3,1.05E1,3.6E1,4.166667E-1,-0E0,7.5223944E-3,-3.628749E-4,7.5E-1,-0E0,2.6641295E-3,2.916667E-1,-2.9295138E-3,-2.6586358E-3,-9.170761E-3,3.6E1,1.4112456E-3,-0E0,-7.1269283E-3],"split_indices":[3,3,0,0,0,0,3,0,0,0,3,3,0,0,0,0,0,0,0,0,0,0,0,3,0,0,0],"split_type":[0,0,0,0,0,0,0,0,0,0,0,0,0,0,0,0,0,0,0,0,0,0,0,0,0,0,0],"sum_hessian":[2.42E2,1.63E2,7.9E1,3.8E1,1.25E2,7.1E1,8E0,2.8E1,1E1,8.8E1,3.7E1,1.9E1,5.2E1,5E0,3E0,1E1,2.7E1,1.2E1,7E0,3.2E1,2E1,1.4E1,1.3E1,1.9E1,1.3E1,1.2E1,7E0],"tree_param":{"num_deleted":"0","num_feature":"4","num_nodes":"27","size_leaf_vector":"0"}},{"base_weights":[-2.5428038E-2,-3.2529637E-2,-1.267899E-2,-2.9476173E-2,-4.3240257E-2,-0E0,-1.5893636E-2,-3.2034326E-2,-8.184897E-3,-7.093856E-2,-2.9171495E-2,-1.070735E-2,1.054846E-2,-1.8415244E-2,-0E0,4.92937E-3,-7.409433E-3],"categories":[],"categories_nodes":[],"categories_segments":[],"categories_sizes":[],"default_left":[1,1,1,1,1,1,1,0,0,0,0,0,0,0,1,0,0],"id":16,"left_children":[1,3,5,7,9,11,13,-1,-1,-1,-1,-1,-1,-1,15,-1,-1],"loss_changes":[2.1348968E-2,1.9829422E-3,3.1687152E-3,5.266607E-3,8.205421E-3,2.4924618E-3,2.9245093E-3,0E0,0E0,0E0,0E0,0E0,0E0,0E0,3.6560692E-4,0E0,0E0],"parents":[2147483647,0,0,1,1,2,2,3,3,4,4,5,5,6,6,14,14],"right_children":[2,4,6,8,10,12,14,-1,-1,-1,-1,-1,-1,-1,16,-1,-1],"split_conditions":[1.8E1,7.5E-1,1.25E-1,4.166667E-1,7.5E0,3.6E1,7.5E-1,-4.9223322E-3,-1.2576752E-3,-1.090028E-2,-4.482435E-3,-1.6452706E-3,1.6208558E-3,-2.8296504E-3,3.6E1,7.574373E-4,-1.138519E-3],"split_indices":[3,0,0,0,3,3,0,0,0,0,0,0,0,0,3,0,0],"split_type":[0,0,0,0,0,0,0,0,0,0,0,0,0,0,0,0,0],"sum_hessian":[2.59E2,1.64E2,9.5E1,1.31E2,3.3E1,2.2E1,7.3E1,1.15E2,1.6E1,1E1,2.3E1,1.3E1,9E0,6.3E1,1E1,6E0,4E0],"tree_param":{"num_deleted":"0","num_feature":"4","num_nodes":"17","size_leaf_vector":"0"}},{"base_weights":[-2.1097155E-2,-2.8321529E-2,-1.6988868E-2,-9.18082E-3,-1.8231228E-2,-1.5825447E-2,-0E0,-1.3190328E-2,-2.3702096E-2,-1.5644243E-2,-2.004882E-3],"categories":[],"categories_nodes":[],"categories_segments":[],"categories_sizes":[],"default_left":[1,0,1,1,1,0,0,1,0,0,0],"id":17,"left_children":[1,-1,3,5,7,-1,-1,9,-1,-1,-1],"loss_changes":[4.780099E-3,0E0,2.009198E-4,1.3152058E-3,1.7606467E-3,0E0,0E0,1.1016726E-3,0E0,0E0,0E0],"parents":[2147483647,0,0,2,2,3,3,4,4,7,7],"right_children":[2,-1,4,6,8,-1,-1,10,-1,-1,-1],"split_conditions":[1.25E-1,-4.351831E-3,2.916667E-1,3.75E-1,2.916667E-1,-2.4317072E-3,-0E0,1.25E-1,-3.6420177E-3,-2.403864E-3,-3.0806626E-4],"split_indices":[0,0,0,1,1,0,0,1,0,0,0],"split_type":[0,0,0,0,0,0,0,0,0,0,0],"sum_hessian":[2.32E2,8E1,1.52E2,2.6E1,1.26E2,1.4E1,1.2E1,7E1,5.6E1,5.4E1,1.6E1],"tree_param":{"num_deleted":"0","num_feature":"4","num_nodes":"11","size_leaf_vector":"0"}},{"base_weights":[-1.5088267E-2,-1.0572322E-2,-3.4158513E-2,-1.7247079E-2,-4.698379E-3,1.4585301E-3,-6.9678393E-3,-8.744871E-3,-0E0],"categories":[],"categories_nodes":[],"categories_segments":[],"categories_sizes":[],"default_left":[1,1,0,0,1,0,1,0,0],"id":18,"left_children":[1,3,-1,-1,5,-1,7,-1,-1],"loss_changes":[2.0399153E-2,7.331783E-3,0E0,0E0,1.8907625E-3,0E0,1.3938849E-3,0E0,0E0],"parents":[2147483647,0,0,1,1,4,4,6,6],"right_children":[2,4,-1,-1,6,-1,8,-1,-1],"split_conditions":[7.5E-1,1.25E-1,-5.2487305E-3,-2.6501524E-3,2.916667E-1,2.2411489E-4,4.166667E-1,-1.3437199E-3,-0E0],"split_indices":[0,0,0,0,0,0,2,0,0],"split_type":[0,0,0,0,0,0,0,0,0],"sum_hessian":[2.61E2,2.13E2,4.8E1,9.6E1,1.17E2,2.6E1,9.1E1,7.6E1,1.5E1],"tree_param":{"num_deleted":"0","num_feature":"4","num_nodes":"9","size_leaf_vector":"0"}},{"base_weights":[-1.4869535E-2,-1.6854657E-2,-4.4174273E-3,-1.3445341E-2,-2.1223642E-2,-1.562741E-2,-5.350333E-3,-2.924828E-2,-1.3054053E-2,-0E0,-1.0198273E-2,-2.4120351E-2,-6.3400813E-3],"categories":[],"categories_nodes":[],"categories_segments":[],"categories_sizes":[],"default_left":[1,1,0,1,1,0,1,0,1,0,0,0,0],"id":19,"left_children":[1,3,-1,5,7,-1,9,-1,11,-1,-1,-1,-1],"loss_changes":[4.1160844E-3,1.4128499E-3,0E0,1.1452045E-3,3.4757853E-3,0E0,9.0950454E-4,0E0,1.8542437E-3,0E0,0E0,0E0,0E0],"parents":[2147483647,0,0,1,1,3,3,4,4,6,6,8,8],"right_children":[2,4,-1,6,8,-1,10,-1,12,-1,-1,-1,-1],"split_conditions":[7.5E-1,2.916667E-1,-6.787733E-4,1.25E-1,4.166667E-1,-2.4012774E-3,3.75E-1,-4.4942335E-3,1.25E-1,-0E0,-1.5670466E-3,-3.7062862E-3,-9.742045E-4],"split_indices":[0,0,0,0,0,0,2,0,2,0,0,0,0],"split_type":[0,0,0,0,0,0,0,0,0,0,0,0,0],"sum_hessian":[2.46E2,2.03E2,4.3E1,1.2E2,8.3E1,9E1,3E1,3.9E1,4.4E1,1.3E1,1.7E1,1.4E1,3E1],"tree_param":{"num_deleted":"0","num_feature":"4","num_nodes":"13","size_leaf_vector":"0"}},{"base_weights":[-1.2674913E-2,-9.140986E-3,-2.9389434E-2,-1.2489433E-2,-7.679716E-3,-6.225446E-3,-1.2771739E-2],"categories":[],"categories_nodes":[],"categories_segments":[],"categories_sizes":[],"default_left":[1,1,0,0,1,0,0],"id":20,"left_children":[1,3,-1,-1,5,-1,-1],"loss_changes":[1.4217336E-2,1.6883947E-4,0E0,0E0,3.5417266E-4,0E0,0E0],"parents":[2147483647,0,0,1,1,4,4],"right_children":[2,4,-1,-1,6,-1,-1],"split_conditions":[7.5E-1,1.25E-1,-4.515923E-3,-1.9191019E-3,4.166667E-1,-9.565898E-4,-1.9624804E-3],"split_indices":[0,1,0,0,0,0,0],"split_type":[0,0,0,0,0,0,0],"sum_hessian":[2.71E2,2.26E2,4.5E1,5.9E1,1.67E2,1.37E2,3E1],"tree_param":{"num_deleted":"0","num_feature":"4","num_nodes":"7","size_leaf_vector":"0"}},{"base_weights":[-5.201841E-3,-0E0,-1.699857E-2,1.2269584E-3,-1.4623881E-3,-1.2210328E-2,-2.168695E-2,-9.959214E-3,1.6418241E-3,-0E0,-1.575041E-2],"categories":[],"categories_nodes":[],"categories_segments":[],"categories_sizes":[],"default_left":[1,1,1,0,1,1,0,0,0,0,0],"id":21,"left_children":[1,3,5,-1,7,9,-1,-1,-1,-1,-1],"loss_changes":[1.5539304E-2,3.023917E-4,1.5361048E-4,0E0,2.2590978E-3,1.5277225E-3,0E0,0E0,0E0,0E0,0E0],"parents":[2147483647,0,0,1,1,2,2,4,4,5,5],"right_children":[2,4,6,-1,8,10,-1,-1,-1,-1,-1],"split_conditions":[4.166667E-1,4.166667E-1,7.5E-1,1.8853202E-4,7.5E-1,1.25E-1,-3.3323744E-3,-1.5303134E-3,2.5227948E-4,-0E0,-2.4201772E-3],"split_indices":[2,0,2,0,0,0,0,0,0,0,0],"split_type":[0,0,0,0,0,0,0,0,0,0,0],"sum_hessian":[2.48E2,1.71E2,7.7E1,1E2,7.1E1,4.3E1,3.4E1,2.3E1,4.8E1,1.1E1,3.2E1],"tree_param":{"num_deleted":"0","num_feature":"4","num_nodes":"11","size_leaf_vector":"0"}},{"base_weights":[-1.0337927E-2,-4.5884126E-3,-1.5866058E-2,-9.982146E-3,-5.121787E-5,-1.222546E-2,-2.1460924E-2,-1.4247542E-3,-0E0,-0E0,-1.7740846E-2,-3.5888774E-3,-0E0],"categories":[],"categories_nodes":[],"categories_segments":[],"categories_sizes":[],"default_left":[1,1,1,0,1,1,0,1,0,0,0,0,0],"id":22,"left_children":[1,3,5,-1,7,9,-1,11,-1,-1,-1,-1,-1],"loss_changes":[7.536255E-3,2.837858E-3,1.123488E-3,0E0,6.0698647E-5,6.1804466E-3,0E0,1.4521251E-4,0E0,0E0,0E0,0E0,0E0],"parents":[2147483647,0,0,1,1,2,2,4,4,5,5,7,7],"right_children":[2,4,6,-1,8,10,-1,12,-1,-1,-1,-1,-1],"split_conditions":[2.916667E-1,3.75E-1,7.5E-1,-1.533837E-3,7.5E-1,2.916667E-1,-3.2976437E-3,1.25E-1,-0E0,-0E0,-2.7260238E-3,-5.514599E-4,-0E0],"split_indices":[0,1,0,0,1,1,0,0,0,0,0,0,0],"split_type":[0,0,0,0,0,0,0,0,0,0,0,0,0],"sum_hessian":[2.67E2,1.35E2,1.32E2,5.7E1,7.8E1,8.5E1,4.7E1,3E1,4.8E1,2.5E1,6E1,1.6E1,1.4E1],"tree_param":{"num_deleted":"0","num_feature":"4","num_nodes":"13","size_leaf_vector":"0"}},{"base_weights":[-1.0834545E-2,-2.9641416E-2,-2.5469912E-3,-3.6474474E-2,-6.5600183E-3,-1.0526197E-2,5.3524543E-3,-1.944707E-2,-4.490778E-3,1.2766597E-2,-4.2493073E-3,6.8723317E-3,2.7065478E-2,-1.3550309E-2,1.9007578E-2,-0E0,1.3603356E-2,-6.5459106E-3,1.2388193E-2,3.59222E-2,-1.8448369E-3],"categories":[],"categories_nodes":[],"categories_segments":[],"categories_sizes":[],"default_left":[1,1,1,0,0,1,1,0,0,1,1,1,0,0,0,1,1,0,0,0,0],"id":23,"left_children":[1,3,5,-1,-1,7,9,-1,-1,11,13,15,-1,-1,-1,17,19,-1,-1,-1,-1],"loss_changes":[3.606824E-2,9.3567E-3,1.0892902E-2,0E0,0E0,3.5723355E-3,6.233399E-3,0E0,0E0,2.5533205E-3,6.886145E-3,1.7688791E-3,0E0,0E0,0E0,1.4355268E-3,8.134725E-3,0E0,0E0,0E0,0E0],"parents":[2147483647,0,0,1,1,2,2,5,5,6,6,9,9,10,10,11,11,15,15,16,16],"right_children":[2,4,6,-1,-1,8,10,-1,-1,12,14,16,-1,-1,-1,18,20,-1,-1,-1,-1],"split_conditions":[1.05E1,6.666667E-1,1.8E1,-5.6045963E-3,-1.0079996E-3,1.25E-1,4.166667E-1,-2.9881988E-3,-6.9004414E-4,2.916667E-1,7.5E-1,3.6E1,4.1588284E-3,-2.082114E-3,2.9206674E-3,1.25E-1,1.25E-1,-1.0058319E-3,1.9035456E-3,5.519735E-3,-2.8347404E-4],"split_indices":[3,0,3,0,0,0,0,0,0,0,0,3,0,0,0,0,0,0,0,0,0],"split_type":[0,0,0,0,0,0,0,0,0,0,0,0,0,0,0,0,0,0,0,0,0],"sum_hessian":[2.41E2,7.2E1,1.69E2,5.4E1,1.8E1,8.7E1,8.2E1,3.2E1,5.5E1,4.9E1,3.3E1,3.7E1,1.2E1,2.5E1,8E0,1.8E1,1.9E1,1.2E1,6E0,9E0,1E1],"tree_param":{"num_deleted":"0","num_feature":"4","num_nodes":"21","size_leaf_vector":"0"}},{"base_weights":[-9.611729E-3,-1.3352439E-2,-1.5837448E-3,-5.2515124E-3,-2.072453E-2,-5.0947354E-3,1.5367401E-3,2.9346556E-3,-1.4543066E-2,-3.929679E-2,-5.0525726E-3,3.0781247E-3,-1.6492113E-2,-1.11733405E-2,1.5297635E-2,5.656398E-3,-0E0,-7.985914E-3,-0E0,-8.895314E-3,2.2536566E-2,-0E0,-2.5126824E-2],"categories":[],"categories_nodes":[],"categories_segments":[],"categories_sizes":[],"default_left":[1,1,1,1,1,1,1,1,0,0,1,1,0,1,0,0,0,0,0,0,0,0,0],"id":24,"left_children":[1,3,5,7,9,11,13,15,-1,-1,17,19,-1,21,-1,-1,-1,-1,-1,-1,-1,-1,-1],"loss_changes":[6.9640763E-3,8.945977E-3,1.0965564E-3,6.928685E-3,2.2971991E-2,5.0013964E-3,6.8387697E-3,2.1425833E-4,0E0,0E0,9.430805E-4,6.4593414E-3,0E0,2.1736992E-3,0E0,0E0,0E0,0E0,0E0,0E0,0E0,0E0,0E0],"parents":[2147483647,0,0,1,1,2,2,3,3,4,4,5,5,6,6,7,7,10,10,11,11,13,13],"right_children":[2,4,6,8,10,12,14,16,-1,-1,18,20,-1,22,-1,-1,-1,-1,-1,-1,-1,-1,-1],"split_conditions":[1.8E1,2.916667E-1,3.6E1,1.05E1,1.05E1,4.166667E-1,2.916667E-1,7.5E0,-2.2346592E-3,-6.038268E-3,7.5E-1,1.25E-1,-2.534146E-3,1.25E-1,2.3506049E-3,8.6915103E-4,-0E0,-1.2270999E-3,-0E0,-1.3668366E-3,3.4629249E-3,-0E0,-3.8609388E-3],"split_indices":[3,1,3,3,3,1,1,3,0,0,1,1,0,1,0,0,0,0,0,0,0,0,0],"split_type":[0,0,0,0,0,0,0,0,0,0,0,0,0,0,0,0,0,0,0,0,0,0,0],"sum_hessian":[2.55E2,1.7E2,8.5E1,8.4E1,8.6E1,4.7E1,3.8E1,4.2E1,4.2E1,3.8E1,4.8E1,2.5E1,2.2E1,1.8E1,2E1,1.8E1,2.4E1,3.4E1,1.4E1,1.4E1,1.1E1,1.1E1,7E0],"tree_param":{"num_deleted":"0","num_feature":"4","num_nodes":"23","size_leaf_vector":"0"}},{"base_weights":[-7.402522E-3,-3.432053E-2,-2.4192228E-3,-4.377429E-2,-1.934966E-2,-6.873982E-3,3.1648034E-3,-0E0,-4.766393E-2,-2.3671088E-3,-2.5231147E-2,-0E0,5.7044504E-3,1.9031062E-3,-8.1078205E-3,3.4054627E-3,-3.2315443E-3,-8.1121706E-4,1.5514738E-2,9.507606E-3,-1.1158702E-3,-2.6103808E-2,-2.3011863E-3,-7.243531E-3,2.7492292E-2,1.3662643E-2,-2.1275112E-2,1.9126492E-2,-7.771467E-3,-1.263286E-2,9.99853E-5,1.1071728E-2,-6.313471E-3],"categories":[],"categories_nodes":[],"categories_segments":[],"categories_sizes":[],"default_left":[1,1,1,0,1,1,1,0,0,1,0,1,1,1,1,1,1,1,0,0,0,0,1,0,0,0,0,0,0,0,1,0,0],"id":25,"left_children":[1,3,5,-1,7,9,11,-1,-1,13,-1,15,17,19,21,23,25,27,-1,-1,-1,-1,29,-1,-1,-1,-1,-1,-1,-1,31,-1,-1],"loss_changes":[3.3036202E-2,2.5860853E-3,5.6450027E-3,0E0,9.543167E-3,9.225447E-3,6.3053175E-4,0E0,0E0,2.8377413E-3,0E0,4.988471E-4,3.751279E-3,1.6525125E-3,3.801203E-3,7.3541785E-3,6.4518023E-3,3.081474E-3,0E0,0E0,0E0,0E0,1.5496586E-3,0E0,0E0,0E0,0E0,0E0,0E0,0E0,2.1916428E-3,0E0,0E0],"parents":[2147483647,0,0,1,1,2,2,4,4,5,5,6,6,9,9,11,11,12,12,13,13,14,14,15,15,16,16,17,17,22,22,30,30],"right_children":[2,4,6,-1,8,10,12,-1,-1,14,-1,16,18,20,22,24,26,28,-1,-1,-1,-1,30,-1,-1,-1,-1,-1,-1,-1,32,-1,-1],"split_conditions":[7.5E0,1.6666667E-1,1.8E1,-6.7262715E-3,6.666667E-1,7.5E-1,2.916667E-1,-0E0,-7.3239463E-3,1.25E-1,-3.8769688E-3,3.6E1,3.6E1,1.05E1,1.05E1,1.25E-1,1.25E-1,4.166667E-1,2.3839644E-3,1.4609201E-3,-1.7146244E-4,-4.01106E-3,2.916667E-1,-1.1130268E-3,4.224412E-3,2.099375E-3,-3.2690922E-3,2.9389393E-3,-1.1941484E-3,-1.9411406E-3,4.166667E-1,1.7012601E-3,-9.7011565E-4],"split_indices":[3,1,3,0,1,1,1,0,0,1,0,3,3,3,3,1,1,1,0,0,0,0,1,0,0,0,0,0,0,0,1,0,0],"split_type":[0,0,0,0,0,0,0,0,0,0,0,0,0,0,0,0,0,0,0,0,0,0,0,0,0,0,0,0,0,0,0,0,0],"sum_hessian":[2.59E2,3.9E1,2.2E2,2.2E1,1.7E1,1.27E2,9.3E1,1E1,7E0,1.04E2,2.3E1,4.5E1,4.8E1,5.5E1,4.9E1,2.5E1,2E1,2.6E1,2.2E1,2E1,3.5E1,1E1,3.9E1,1.6E1,9E0,9E0,1.1E1,5E0,2.1E1,1.1E1,2.8E1,1.3E1,1.5E1],"tree_param":{"num_deleted":"0","num_feature":"4","num_nodes":"33","size_leaf_vector":"0"}},{"base_weights":[-3.2520145E-3,-2.12742E-2,2.829937E-4,-0E0,-4.9783677E-2,-1.1494914E-3,7.887141E-3,-6.998396E-2,-2.4409488E-2,1.1697477E-3,-1.945579E-3,-0E0,1.0407717E-2,-2.8582881E-3,-0E0,-5.511744E-4,-5.330698E-3,-5.9753936E-3,6.183799E-3,-1.9101403E-3,4.8605245E-5,3.4861108E-3,-1.7441034E-2,-4.3763168E-4,5.1779137E-3],"categories":[],"categories_nodes":[],"categories_segments":[],"categories_sizes":[],"default_left":[1,1,1,0,1,1,1,0,0,0,1,0,0,1,1,1,0,1,0,0,1,0,0,0,0],"id":26,"left_children":[1,3,5,-1,7,9,11,-1,-1,-1,13,-1,-1,15,17,19,-1,21,-1,-1,23,-1,-1,-1,-1],"loss_changes":[1.645628E-2,2.5608141E-2,2.5024328E-3,0E0,4.838962E-3,3.3883957E-4,5.148016E-4,0E0,0E0,0E0,3.2291946E-4,0E0,0E0,3.1435833E-4,1.2623296E-3,1.3780875E-4,0E0,2.2758106E-3,0E0,0E0,2.700495E-4,0E0,0E0,0E0,0E0],"parents":[2147483647,0,0,1,1,2,2,4,4,5,5,6,6,10,10,13,13,14,14,15,15,17,17,20,20],"right_children":[2,4,6,-1,8,10,12,-1,-1,-1,14,-1,-1,16,18,20,-1,22,-1,-1,24,-1,-1,-1,-1],"split_conditions":[7.5E0,1.6666667E-1,7.5E-1,-0E0,6.666667E-1,1.05E1,1.05E1,-1.0753598E-2,-3.7507142E-3,1.7974114E-4,3.6E1,-0E0,1.5992295E-3,2.916667E-1,2.916667E-1,1.25E-1,-8.1910467E-4,1.25E-1,9.501905E-4,-2.9350843E-4,1.8E1,5.35669E-4,-2.6799552E-3,-6.724563E-5,7.956281E-4],"split_indices":[3,0,0,0,0,3,3,0,0,0,3,0,0,0,0,0,0,0,0,0,3,0,0,0,0],"split_type":[0,0,0,0,0,0,0,0,0,0,0,0,0,0,0,0,0,0,0,0,0,0,0,0,0],"sum_hessian":[2.43E2,4.2E1,2.01E2,2.4E1,1.8E1,1.64E2,3.7E1,9E0,9E0,2.7E1,1.37E2,1.1E1,2.6E1,1.03E2,3.4E1,6.3E1,4E1,1.5E1,1.9E1,4.3E1,2E1,6E0,9E0,1E1,1E1],"tree_param":{"num_deleted":"0","num_feature":"4","num_nodes":"25","size_leaf_vector":"0"}},{"base_weights":[-2.3065717E-3,-4.2351107E-3,7.0844498E-3,-1.2209506E-2,-5.229247E-4,-1.445688E-2,-5.3951493E-3,1.1709147E-3,-2.4497765E-3,-0E0,-7.0838593E-3,1.3686481E-3,-5.717858E-4],"categories":[],"categories_nodes":[],"categories_segments":[],"categories_sizes":[],"default_left":[1,1,0,1,1,0,0,0,1,1,0,0,0],"id":27,"left_children":[1,3,-1,5,7,-1,-1,-1,9,11,-1,-1,-1],"loss_changes":[4.4498695E-3,5.743645E-3,0E0,5.795434E-5,5.4897816E-4,0E0,0E0,0E0,9.572547E-4,4.394711E-5,0E0,0E0,0E0],"parents":[2147483647,0,0,1,1,3,3,4,4,8,8,9,9],"right_children":[2,4,-1,6,8,-1,-1,-1,10,12,-1,-1,-1],"split_conditions":[7.5E-1,1.25E-1,1.0885827E-3,2.5E-1,4.166667E-1,-2.221416E-3,-8.290081E-4,1.7992048E-4,1.25E-1,7.5E-1,-1.088492E-3,2.103038E-4,-8.785949E-5],"split_indices":[1,2,0,1,2,0,0,0,1,2,0,0,0],"split_type":[0,0,0,0,0,0,0,0,0,0,0,0,0],"sum_hessian":[2.53E2,2.14E2,3.9E1,6.4E1,1.5E2,4.3E1,2.1E1,6.7E1,8.3E1,5.4E1,2.9E1,1.7E1,3.7E1],"tree_param":{"num_deleted":"0","num_feature":"4","num_nodes":"13","size_leaf_vector":"0"}},{"base_weights":[-2.4309033E-3,-5.1395223E-3,9.07131E-3,1.5922708E-3,-1.1801271E-2,-0E0,1.850578E-2,-0E0,8.987289E-3,-1.9737432E-2,-9.762996E-3,1.5450088E-2,-1.9646058E-2,1.068295E-2,3.7363153E-2,2.740924E-3,-2.7654816E-3,-0E0,1.3830521E-2,-1.8324648E-3,1.014774E-2],"categories":[],"categories_nodes":[],"categories_segments":[],"categories_sizes":[],"default_left":[1,1,1,1,1,1,1,1,1,0,0,0,0,0,0,1,0,0,0,0,0],"id":28,"left_children":[1,3,5,7,9,11,13,15,17,-1,-1,-1,-1,-1,-1,19,-1,-1,-1,-1,-1],"loss_changes":[7.544074E-3,9.622799E-3,4.2566787E-3,1.2864072E-3,3.4407992E-4,6.4871367E-3,1.1607977E-3,5.992212E-4,1.8719549E-4,0E0,0E0,0E0,0E0,0E0,0E0,1.6396809E-3,0E0,0E0,0E0,0E0,0E0],"parents":[2147483647,0,0,1,1,2,2,3,3,4,4,5,5,6,6,7,7,8,8,15,15],"right_children":[2,4,6,8,10,12,14,16,18,-1,-1,-1,-1,-1,-1,20,-1,-1,-1,-1,-1],"split_conditions":[3.6E1,2.916667E-1,2.916667E-1,1.25E-1,7.5E0,1.25E-1,7.5E-1,1.05E1,1.8E1,-3.0328152E-3,-1.5001629E-3,2.3740304E-3,-3.0187748E-3,1.6415212E-3,5.741149E-3,7.5E0,-4.249385E-4,-0E0,2.1251708E-3,-2.8157295E-4,1.559282E-3],"split_indices":[3,0,0,0,3,0,0,3,3,0,0,0,0,0,0,3,0,0,0,0,0],"split_type":[0,0,0,0,0,0,0,0,0,0,0,0,0,0,0,0,0,0,0,0,0],"sum_hessian":[2.48E2,2.04E2,4.4E1,9.8E1,1.06E2,2.1E1,2.3E1,7.9E1,1.9E1,1.7E1,8.9E1,1.1E1,1E1,1.8E1,5E0,3.7E1,4.2E1,1E1,9E0,1.9E1,1.8E1],"tree_param":{"num_deleted":"0","num_feature":"4","num_nodes":"21","size_leaf_vector":"0"}},{"base_weights":[-3.4548647E-3,-3.2999597E-2,1.2183E-3,-2.9379453E-3,7.035877E-3,-6.297613E-4,-1.2847708E-2,1.2156669E-2,-1.5164589E-4,-6.656395E-3,1.5712689E-3,1.050547E-2,-3.2284755E-2,2.6582263E-3,1.8332856E-2,-4.419449E-3,9.511913E-3,-0E0,-2.1237817E-2,-5.474392E-3,9.097331E-3,-0E0,9.740055E-3,-7.812226E-3,-0E0,1.36678945E-2,-0E0,-0E0,1.9660784E-2],"categories":[],"categories_nodes":[],"categories_segments":[],"categories_sizes":[],"default_left":[1,0,1,1,1,1,1,1,1,1,1,0,0,1,0,1,0,0,0,0,1,0,0,0,0,1,0,0,0],"id":29,"left_children":[1,-1,3,5,7,9,11,13,15,17,19,-1,-1,21,-1,23,-1,-1,-1,-1,25,-1,-1,-1,-1,27,-1,-1,-1],"loss_changes":[3.7512112E-2,0E0,5.6066024E-3,2.2561676E-3,4.164631E-3,1.6423048E-3,1.0092007E-2,2.6036408E-3,1.2896755E-3,3.4561453E-3,3.98642E-3,0E0,0E0,7.581396E-4,0E0,4.1019294E-4,0E0,0E0,0E0,0E0,1.3388216E-3,0E0,0E0,0E0,0E0,1.3152692E-3,0E0,0E0,0E0],"parents":[2147483647,0,0,2,2,3,3,4,4,5,5,6,6,7,7,8,8,9,9,10,10,13,13,15,15,20,20,25,25],"right_children":[2,-1,4,6,8,10,12,14,16,18,20,-1,-1,22,-1,24,-1,-1,-1,-1,26,-1,-1,-1,-1,28,-1,-1,-1],"split_conditions":[7.5E0,-5.0706537E-3,1.8E1,7.5E-1,4.166667E-1,1.05E1,1.05E1,1.25E-1,7.5E-1,1.6666667E-1,1.25E-1,1.6142501E-3,-4.9608126E-3,3.6E1,2.8169907E-3,3.6E1,1.461582E-3,-0E0,-3.2633615E-3,-8.4118434E-4,4.166667E-1,-0E0,1.4966378E-3,-1.2004115E-3,-0E0,2.916667E-1,-0E0,-0E0,3.0210377E-3],"split_indices":[3,0,3,0,0,3,3,0,0,0,0,0,0,3,0,3,0,0,0,0,0,0,0,0,0,0,0,0,0],"split_type":[0,0,0,0,0,0,0,0,0,0,0,0,0,0,0,0,0,0,0,0,0,0,0,0,0,0,0,0,0],"sum_hessian":[2.61E2,3.7E1,2.24E2,1.26E2,9.8E1,1.06E2,2E1,6.1E1,3.7E1,3.4E1,7.2E1,8E0,1.2E1,2.7E1,3.4E1,2.9E1,8E0,2.3E1,1.1E1,3.4E1,3.8E1,1.7E1,1E1,1.6E1,1.3E1,2.4E1,1.4E1,9E0,1.5E1],"tree_param":{"num_deleted":"0","num_feature":"4","num_nodes":"29","size_leaf_vector":"0"}},{"base_weights":[-4.6547484E-3,7.589552E-3,-7.004459E-3,-5.677443E-3,2.2514112E-2,-2.120868E-2,-3.8355235E-3,4.0987585E-2,-0E0,-3.6080495E-2,7.14505E-3,-1.4843787E-3,-1.9142218E-2,2.2770543E-4,-3.198707E-3,-6.439613E-4,-7.652655E-3,-7.537519E-3,5.051265E-3,7.912668E-3,-2.2228232E-2,-1.0575717E-2,-1.2161016E-3,-3.7595935E-3,-0E0],"categories":[],"categories_nodes":[],"categories_segments":[],"categories_sizes":[],"default_left":[1,1,1,0,1,1,1,0,0,0,0,1,0,0,1,1,1,1,0,0,0,0,1,0,0],"id":30,"left_children":[1,3,5,-1,7,9,11,-1,-1,-1,-1,13,-1,-1,15,17,19,21,-1,-1,-1,-1,23,-1,-1],"loss_changes":[7.5109378E-3,8.505001E-3,8.874494E-3,0E0,8.3452985E-3,1.7369233E-2,5.699876E-3,0E0,0E0,0E0,0E0,6.1641086E-4,0E0,0E0,6.956705E-4,2.7461264E-3,7.018423E-3,1.05358195E-4,0E0,0E0,0E0,0E0,1.3185205E-4,0E0,0E0],"parents":[2147483647,0,0,1,1,2,2,4,4,5,5,6,6,11,11,14,14,15,15,16,16,17,17,22,22],"right_children":[2,4,6,-1,8,10,12,-1,-1,-1,-1,14,-1,-1,16,18,20,22,-1,-1,-1,-1,24,-1,-1],"split_conditions":[7.5E0,1.6666667E-1,1.05E1,-8.723848E-4,6.666667E-1,6.666667E-1,7.5E-1,6.298072E-3,-0E0,-5.5440585E-3,1.0978944E-3,1.25E-1,-2.9413558E-3,3.498877E-5,3.6E1,4.166667E-1,4.166667E-1,1.8E1,7.761675E-4,1.2158452E-3,-3.4155466E-3,-1.625044E-3,2.916667E-1,-5.7769177E-4,-0E0],"split_indices":[3,2,3,0,2,2,2,0,0,0,0,2,0,0,3,2,2,3,0,0,0,0,2,0,0],"split_type":[0,0,0,0,0,0,0,0,0,0,0,0,0,0,0,0,0,0,0,0,0,0,0,0,0],"sum_hessian":[2.62E2,3.9E1,2.23E2,1.9E1,2E1,3.8E1,1.85E2,1.1E1,9E0,2.6E1,1.2E1,1.63E2,2.2E1,6.8E1,9.5E1,6.7E1,2.8E1,3.4E1,3.3E1,1.2E1,1.6E1,1.8E1,1.6E1,1.1E1,5E0],"tree_param":{"num_deleted":"0","num_feature":"4","num_nodes":"25","size_leaf_vector":"0"}},{"base_weights":[-2.2502812E-3,1.2457345E-2,-4.554903E-3,-1.0392841E-2,-2.7234382E-3,1.9484207E-3,-2.3639526E-2,-6.043224E-3,1.6762124E-2,-9.017104E-3,-1.5994661E-3,-4.776323E-3,-2.2746371E-2,-6.662948E-3,5.3101836E-4,-6.5453346E-3,-0E0,-1.20427925E-2,-0E0,1.734008E-2,-3.525093E-3,-5.042292E-4,-1.5932253E-2,-2.8736948E-3,2.5422636E-3,-6.4723454E-3,-0E0],"categories":[],"categories_nodes":[],"categories_segments":[],"categories_sizes":[],"default_left":[1,0,1,1,1,0,0,1,0,1,1,1,0,1,1,1,1,0,0,0,1,0,0,0,0,0,0],"id":31,"left_children":[1,-1,3,5,7,-1,-1,9,-1,11,13,15,-1,17,19,21,23,-1,-1,-1,25,-1,-1,-1,-1,-1,-1],"loss_changes":[8.073214E-3,0E0,1.7216373E-3,8.528101E-3,1.0628947E-2,0E0,0E0,1.4759907E-3,0E0,3.5541062E-3,9.968135E-4,4.6508363E-4,0E0,5.8635406E-4,3.3691465E-3,1.8453035E-3,1.5084246E-4,0E0,0E0,0E0,2.5566077E-4,0E0,0E0,0E0,0E0,0E0,0E0],"parents":[2147483647,0,0,2,2,3,3,4,4,7,7,9,9,10,10,11,11,13,13,14,14,15,15,16,16,20,20],"right_children":[2,-1,4,6,8,-1,-1,10,-1,12,14,16,-1,18,20,22,24,-1,-1,-1,26,-1,-1,-1,-1,-1,-1],"split_conditions":[7.5E0,1.9141713E-3,1.05E1,1.6666667E-1,7.5E-1,2.9939052E-4,-3.6324034E-3,2.916667E-1,2.5756352E-3,3.6E1,1.8E1,1.25E-1,-3.495163E-3,4.166667E-1,4.166667E-1,1.8E1,1.8E1,-1.850472E-3,-0E0,2.6644429E-3,3.6E1,-7.747888E-5,-2.4481188E-3,-4.415663E-4,3.9063927E-4,-9.94528E-4,-0E0],"split_indices":[3,0,3,1,1,0,0,1,0,3,3,1,0,1,1,3,3,0,0,0,3,0,0,0,0,0,0],"split_type":[0,0,0,0,0,0,0,0,0,0,0,0,0,0,0,0,0,0,0,0,0,0,0,0,0,0,0],"sum_hessian":[2.49E2,3.1E1,2.18E2,4.6E1,1.72E2,2.2E1,2.4E1,1.49E2,2.3E1,8.3E1,6.6E1,6.6E1,1.7E1,2.6E1,4E1,4.6E1,2E1,1.2E1,1.4E1,1E1,3E1,3.1E1,1.5E1,1.2E1,8E0,1.5E1,1.5E1],"tree_param":{"num_deleted":"0","num_feature":"4","num_nodes":"27","size_leaf_vector":"0"}},{"base_weights":[-9.985792E-3,-7.3330845E-3,-2.3553409E-2,-1.0406216E-2,-4.559217E-3,-2.0851279E-3,-1.0597569E-2,4.1842577E-3,-3.805918E-3],"categories":[],"categories_nodes":[],"categories_segments":[],"categories_sizes":[],"default_left":[1,1,0,0,1,1,0,0,0],"id":32,"left_children":[1,3,-1,-1,5,7,-1,-1,-1],"loss_changes":[7.7788234E-3,1.1546537E-3,0E0,0E0,1.233561E-3,9.7502465E-4,0E0,0E0,0E0],"parents":[2147483647,0,0,1,1,4,4,5,5],"right_children":[2,4,-1,-1,6,8,-1,-1,-1],"split_conditions":[7.5E-1,1.25E-1,-3.6191707E-3,-1.5989988E-3,4.166667E-1,2.916667E-1,-1.6284018E-3,6.429449E-4,-5.848099E-4],"split_indices":[1,1,0,0,2,1,0,0,0],"split_type":[0,0,0,0,0,0,0,0,0],"sum_hessian":[2.56E2,2.17E2,3.9E1,9.5E1,1.22E2,9.2E1,3E1,1.4E1,7.8E1],"tree_param":{"num_deleted":"0","num_feature":"4","num_nodes":"9","size_leaf_vector":"0"}},{"base_weights":[5.32275E-3,9.6250195E-3,-2.0623207E-3,2.9686377E-3,2.9596377E-2,-2.4625795E-2,4.6036692E-4,-0E0,3.5776198E-3,-1.6183443E-3,9.01773E-3,4.2933905E-3,-0E0,-0E0,-2.9295937E-3,6.592392E-4,2.0774646E-2,1.8093493E-3,9.292086E-3,6.657768E-3,-6.397823E-3,7.973753E-3,-0E0,-1.7762776E-3,2.2227861E-2,3.0729515E-4,-1.6730542E-3],"categories":[],"categories_nodes":[],"categories_segments":[],"categories_sizes":[],"default_left":[1,1,1,1,0,0,1,0,1,1,1,1,1,0,0,0,0,1,1,0,0,0,1,0,0,0,0],"id":33,"left_children":[1,3,5,7,-1,-1,9,-1,11,13,15,17,19,-1,-1,-1,-1,21,23,-1,-1,-1,25,-1,-1,-1,-1],"loss_changes":[8.548699E-3,2.0688165E-2,6.302288E-3,2.631154E-4,0E0,0E0,1.7668046E-3,0E0,2.951054E-4,7.4601994E-5,9.7016734E-4,6.143424E-4,7.232288E-4,0E0,0E0,0E0,0E0,8.61696E-4,4.3866104E-3,0E0,0E0,0E0,4.529961E-5,0E0,0E0,0E0,0E0],"parents":[2147483647,0,0,1,1,2,2,3,3,6,6,8,8,9,9,10,10,11,11,12,12,17,17,18,18,22,22],"right_children":[2,4,6,8,-1,-1,10,-1,12,14,16,18,20,-1,-1,-1,-1,22,24,-1,-1,-1,26,-1,-1,-1,-1],"split_conditions":[4.166667E-1,2.916667E-1,7.5E0,7.5E0,4.5477217E-3,-3.7839515E-3,3.6E1,-0E0,3.6E1,7.5E-1,7.5E-1,1.25E-1,1.25E-1,-0E0,-4.5015564E-4,1.0129741E-4,3.1921915E-3,1.05E1,1.8E1,1.0230197E-3,-9.83077E-4,1.2252313E-3,1.8E1,-2.7293933E-4,3.4154898E-3,4.7218375E-5,-2.5707824E-4],"split_indices":[1,1,3,3,0,0,3,0,3,1,1,1,1,0,0,0,0,3,3,0,0,0,3,0,0,0,0],"split_type":[0,0,0,0,0,0,0,0,0,0,0,0,0,0,0,0,0,0,0,0,0,0,0,0,0,0,0],"sum_hessian":[2.58E2,1.67E2,9.1E1,1.27E2,4E1,1.1E1,8E1,1.9E1,1.08E2,6E1,2E1,9.1E1,1.7E1,3.3E1,2.7E1,1.4E1,6E0,6.7E1,2.4E1,8E0,9E0,1.7E1,5E1,1.1E1,1.3E1,3.5E1,1.5E1],"tree_param":{"num_deleted":"0","num_feature":"4","num_nodes":"27","size_leaf_vector":"0"}},{"base_weights":[-7.263954E-3,-1.597244E-2,7.005809E-3,-3.3505753E-2,-1.1088683E-2,-0E0,9.183977E-3,-1.3761759E-2,-4.724147E-3,-7.2902753E-3,1.2835502E-2,1.7336942E-2,1.720914E-3,5.5266647E-3,-1.0190385E-2,-0E0,8.035448E-3,-0E0,-1.7779954E-2],"categories":[],"categories_nodes":[],"categories_segments":[],"categories_sizes":[],"default_left":[1,1,1,0,1,1,1,0,1,0,0,0,1,0,1,0,0,0,0],"id":34,"left_children":[1,3,5,-1,7,9,11,-1,13,-1,-1,-1,15,-1,17,-1,-1,-1,-1],"loss_changes":[3.22297E-2,1.1714272E-2,1.1572014E-3,0E0,1.3189688E-3,2.6100671E-3,3.3133514E-3,0E0,2.6263418E-3,0E0,0E0,0E0,5.3035206E-4,0E0,1.8394445E-3,1.88329E-12,0E0,0E0,0E0],"parents":[2147483647,0,0,1,1,2,2,4,4,5,5,6,6,8,8,12,12,14,14],"right_children":[2,4,6,-1,8,10,12,-1,14,-1,-1,-1,16,-1,18,-1,-1,-1,-1],"split_conditions":[1.8E1,7.5E0,1.25E-1,-5.1484285E-3,4.166667E-1,3.6E1,4.166667E-1,-2.114605E-3,1.05E1,-1.1202095E-3,1.972278E-3,2.6639607E-3,7.5E-1,8.492165E-4,7.5E-1,-0E0,1.2347113E-3,-0E0,-2.732033E-3],"split_indices":[3,3,1,0,1,3,1,0,3,0,0,0,1,0,1,0,0,0,0],"split_type":[0,0,0,0,0,0,0,0,0,0,0,0,0,0,0,0,0,0,0],"sum_hessian":[2.56E2,1.61E2,9.5E1,3.3E1,1.28E2,2.6E1,6.9E1,8.5E1,4.3E1,1.5E1,1.1E1,3E1,3.9E1,1.2E1,3.1E1,2.9E1,1E1,1.5E1,1.6E1],"tree_param":{"num_deleted":"0","num_feature":"4","num_nodes":"19","size_leaf_vector":"0"}},{"base_weights":[-5.5428287E-3,-7.205583E-3,2.7737797E-3,-1.4884121E-2,-2.0462815E-3,1.36895245E-2,-2.0787168E-2,-1.7646622E-2,-0E0,-1.3890429E-2,-0E0,1.6129874E-2,-0E0,-2.358751E-2,-0E0,1.7304087E-2,-3.2654086E-3,-0E0,3.316282E-2,-0E0,-1.45055065E-2,-2.5717265E-3,1.3756928E-3],"categories":[],"categories_nodes":[],"categories_segments":[],"categories_sizes":[],"default_left":[1,1,1,1,1,1,0,0,0,1,1,0,0,0,0,1,1,0,0,1,0,0,0],"id":35,"left_children":[1,3,5,7,9,11,-1,-1,-1,13,15,-1,-1,-1,-1,17,19,-1,-1,21,-1,-1,-1],"loss_changes":[3.828982E-3,8.04806E-3,9.702064E-3,2.746284E-3,3.8645717E-3,4.767147E-4,0E0,0E0,0E0,2.239727E-3,6.9917864E-3,0E0,0E0,0E0,0E0,5.01128E-3,3.6272472E-3,0E0,0E0,2.4015282E-4,0E0,0E0,3.530804E-7],"parents":[2147483647,0,0,1,1,2,2,3,3,4,4,5,5,9,9,10,10,15,15,16,16,19,19],"right_children":[2,4,6,8,10,12,-1,-1,-1,14,16,-1,-1,-1,-1,18,20,-1,-1,22,-1,-1,-1],"split_conditions":[3.6E1,1.25E-1,4.166667E-1,1.8E1,7.5E0,2.916667E-1,-3.1941156E-3,-2.7115454E-3,-0E0,6.666667E-1,1.05E1,2.478485E-3,-0E0,-3.6244108E-3,-0E0,6.666667E-1,7.5E-1,-0E0,5.0957343E-3,2.916667E-1,-2.2288878E-3,-3.9516645E-4,2.1138627E-4],"split_indices":[3,2,2,3,3,2,0,0,0,2,3,0,0,0,0,2,2,0,0,2,0,0,0],"split_type":[0,0,0,0,0,0,0,0,0,0,0,0,0,0,0,0,0,0,0,0,0,0,0],"sum_hessian":[2.62E2,2.23E2,3.9E1,8.6E1,1.37E2,2.8E1,1.1E1,7E1,1.6E1,2.3E1,1.14E2,2.2E1,6E0,1.2E1,1.1E1,2E1,9.4E1,1E1,1E1,7.2E1,2.2E1,2.2E1,5E1],"tree_param":{"num_deleted":"0","num_feature":"4","num_nodes":"23","size_leaf_vector":"0"}},{"base_weights":[-4.863386E-3,-9.807111E-3,-6.111318E-4,-6.1057187E-3,-1.3544324E-2,-0E0,-1.8313472E-3,-8.548315E-3,-0E0,4.4104585E-4,-0E0,-0E0,-2.859118E-3,2.671003E-3,-0E0],"categories":[],"categories_nodes":[],"categories_segments":[],"categories_sizes":[],"default_left":[1,1,1,1,0,1,1,0,0,1,0,0,0,0,0],"id":36,"left_children":[1,3,5,7,-1,9,11,-1,-1,13,-1,-1,-1,-1,-1],"loss_changes":[4.519411E-3,5.396493E-4,1.51565E-4,1.0158317E-3,0E0,6.808781E-6,1.9933643E-4,0E0,0E0,7.8821766E-5,0E0,0E0,0E0,0E0,0E0],"parents":[2147483647,0,0,1,1,2,2,3,3,5,5,6,6,9,9],"right_children":[2,4,6,8,-1,10,12,-1,-1,14,-1,-1,-1,-1,-1],"split_conditions":[1.25E-1,7.5E-1,2.916667E-1,2.5E-1,-2.0811944E-3,7.5E-1,2.916667E-1,-1.3135173E-3,-0E0,1.25E-1,-0E0,-0E0,-4.3932648E-4,4.104211E-4,-0E0],"split_indices":[2,1,1,1,0,2,2,0,0,1,0,0,0,0,0],"split_type":[0,0,0,0,0,0,0,0,0,0,0,0,0,0,0],"sum_hessian":[2.38E2,1.05E2,1.33E2,5.9E1,4.6E1,7.3E1,6E1,4.4E1,1.5E1,3.5E1,3.8E1,1.1E1,4.9E1,1.2E1,2.3E1],"tree_param":{"num_deleted":"0","num_feature":"4","num_nodes":"15","size_leaf_vector":"0"}},{"base_weights":[-0E0,-2.5594176E-3,1.5217996E-2,2.2842098E-4,-7.278537E-3,-2.8721645E-4,1.2330068E-3,-1.0691766E-2,2.1750962E-3,-0E0,-1.587406E-3,2.0078183E-3,-0E0,-6.9776573E-3,-2.0089239E-2,-0E0,-9.081085E-3],"categories":[],"categories_nodes":[],"categories_segments":[],"categories_sizes":[],"default_left":[1,1,0,1,1,1,1,1,0,0,0,0,0,1,0,0,0],"id":37,"left_children":[1,3,-1,5,7,9,11,13,-1,-1,-1,-1,-1,15,-1,-1,-1],"loss_changes":[1.0030172E-2,3.2612926E-3,0E0,1.1334047E-4,3.267495E-3,3.0500049E-5,5.40365E-6,1.1509545E-3,0E0,0E0,0E0,0E0,0E0,6.3582207E-4,0E0,0E0,0E0],"parents":[2147483647,0,0,1,1,3,3,4,4,5,5,6,6,7,7,13,13],"right_children":[2,4,-1,6,8,10,12,14,-1,-1,-1,-1,-1,16,-1,-1,-1],"split_conditions":[7.5E-1,4.166667E-1,2.3383675E-3,1.25E-1,3.75E-1,2.5E-1,2.916667E-1,1.25E-1,3.3422103E-4,-0E0,-2.439177E-4,3.0851745E-4,-0E0,7.5E-1,-3.0868733E-3,-0E0,-1.3953819E-3],"split_indices":[0,2,0,2,0,0,2,0,0,0,0,0,0,2,0,0,0],"split_type":[0,0,0,0,0,0,0,0,0,0,0,0,0,0,0,0,0],"sum_hessian":[2.6E2,2.23E2,3.7E1,1.34E2,8.9E1,5.8E1,7.6E1,6.9E1,2E1,4.4E1,1.4E1,3E1,4.6E1,5.3E1,1.6E1,1.4E1,3.9E1],"tree_param":{"num_deleted":"0","num_feature":"4","num_nodes":"17","size_leaf_vector":"0"}},{"base_weights":[-4.2245863E-3,-1.1610109E-2,-2.472542E-3,-1.767689E-2,-0E0,-3.6584292E-4,-1.3273785E-2,-8.525843E-3,-3.487793E-2,1.9701654E-3,-2.58576E-3,-2.7752826E-2,-6.21586E-3,4.246859E-3,-2.655118E-3,-7.4846717E-3,5.5315683E-4,-7.5312885E-3,-0E0,-1.0055414E-2,1.7167879E-3,-4.234548E-3,5.1578544E-3,5.810379E-3,-1.7311038E-2,-0E0,1.2109005E-2,8.855441E-3,-3.6127488E-3],"categories":[],"categories_nodes":[],"categories_segments":[],"categories_sizes":[],"default_left":[1,1,1,1,0,1,1,0,0,1,1,0,1,0,1,0,1,0,0,0,0,1,1,0,0,1,0,0,0],"id":38,"left_children":[1,3,5,7,-1,9,11,-1,-1,13,15,-1,17,-1,19,-1,21,-1,-1,-1,-1,23,25,-1,-1,27,-1,-1,-1],"loss_changes":[2.6584882E-3,3.756167E-3,4.19063E-3,2.8634286E-3,0E0,9.6723816E-4,1.590135E-3,0E0,0E0,8.9535315E-4,1.9058367E-3,0E0,1.8908613E-4,0E0,1.002125E-3,0E0,1.2996196E-3,0E0,0E0,0E0,0E0,3.5558688E-3,1.2952294E-3,0E0,0E0,5.7507097E-4,0E0,0E0,0E0],"parents":[2147483647,0,0,1,1,2,2,3,3,5,5,6,6,9,9,10,10,12,12,14,14,16,16,21,21,22,22,25,25],"right_children":[2,4,6,8,-1,10,12,-1,-1,14,16,-1,18,-1,20,-1,22,-1,-1,-1,-1,24,26,-1,-1,28,-1,-1,-1],"split_conditions":[7.5E0,6.666667E-1,7.5E-1,1.6666667E-1,-0E0,1.25E-1,1.05E1,-1.3100643E-3,-5.359275E-3,1.8E1,1.8E1,-4.264445E-3,3.6E1,6.5256405E-4,3.6E1,-1.15008E-3,2.916667E-1,-1.157243E-3,-0E0,-1.5450954E-3,2.6379828E-4,3.6E1,3.6E1,8.928115E-4,-2.6599804E-3,4.166667E-1,1.8606461E-3,1.3607097E-3,-5.551279E-4],"split_indices":[3,1,1,1,0,1,3,0,0,3,3,0,3,0,3,0,1,0,0,0,0,3,3,0,0,1,0,0,0],"split_type":[0,0,0,0,0,0,0,0,0,0,0,0,0,0,0,0,0,0,0,0,0,0,0,0,0,0,0,0,0],"sum_hessian":[2.56E2,4.4E1,2.12E2,3.1E1,1.3E1,1.81E2,3.1E1,2.2E1,9E0,7.8E1,1.03E2,8E0,2.3E1,5.9E1,1.9E1,4.6E1,5.7E1,1.9E1,4E0,1.1E1,8E0,2.3E1,3.4E1,1.1E1,1.2E1,1.9E1,1.5E1,5E0,1.4E1],"tree_param":{"num_deleted":"0","num_feature":"4","num_nodes":"29","size_leaf_vector":"0"}},{"base_weights":[4.986863E-4,-1.5588193E-3,1.0095987E-2,-0E0,-3.6734585E-3,-4.888195E-3,-0E0],"categories":[],"categories_nodes":[],"categories_segments":[],"categories_sizes":[],"default_left":[1,1,0,0,1,0,0],"id":39,"left_children":[1,3,-1,-1,5,-1,-1],"loss_changes":[5.43195E-3,7.409425E-4,0E0,2.8883598E-8,5.506367E-4,0E0,0E0],"parents":[2147483647,0,0,1,1,4,4],"right_children":[2,4,-1,-1,6,-1,-1],"split_conditions":[7.5E-1,4.166667E-1,1.5513296E-3,-0E0,3.75E-1,-7.511105E-4,-0E0],"split_indices":[1,2,0,0,1,0,0],"split_type":[0,0,0,0,0,0,0],"sum_hessian":[2.55E2,2.06E2,4.9E1,1.14E2,9.2E1,7.5E1,1.7E1],"tree_param":{"num_deleted":"0","num_feature":"4","num_nodes":"7","size_leaf_vector":"0"}},{"base_weights":[4.4982806E-3,-6.385394E-4,1.0115639E-2,-0E0,-1.8180347E-3,1.1685665E-2,-0E0,-1.375452E-3,2.4308248E-3,-0E0,5.224166E-3],"categories":[],"categories_nodes":[],"categories_segments":[],"categories_sizes":[],"default_left":[1,1,1,1,0,0,0,0,1,0,0],"id":40,"left_children":[1,3,5,7,-1,-1,-1,-1,9,-1,-1],"loss_changes":[7.307822E-3,8.659526E-5,2.127301E-3,2.61956E-4,0E0,0E0,0E0,0E0,1.0752799E-4,0E0,0E0],"parents":[2147483647,0,0,1,1,2,2,3,3,8,8],"right_children":[2,4,6,8,-1,-1,-1,-1,10,-1,-1],"split_conditions":[2.916667E-1,7.5E-1,4.166667E-1,3.75E-1,-2.7935565E-4,1.7955964E-3,-0E0,-2.1134927E-4,1.25E-1,-0E0,8.0273516E-4],"split_indices":[1,2,2,2,0,0,0,0,1,0,0],"split_type":[0,0,0,0,0,0,0,0,0,0,0],"sum_hessian":[2.38E2,1.2E2,1.18E2,7.9E1,4.1E1,1.04E2,1.4E1,5.1E1,2.8E1,1.8E1,1E1],"tree_param":{"num_deleted":"0","num_feature":"4","num_nodes":"11","size_leaf_vector":"0"}},{"base_weights":[-4.6229293E-3,-6.2170625E-3,-9.923655E-4,-4.3089846E-3,-1.1208891E-2,-0E0,-2.6472851E-3,-5.7094255E-3,1.2608888E-4,-0E0,3.3502327E-3],"categories":[],"categories_nodes":[],"categories_segments":[],"categories_sizes":[],"default_left":[1,1,1,1,0,0,0,0,1,0,0],"id":41,"left_children":[1,3,5,7,-1,-1,-1,-1,9,-1,-1],"loss_changes":[1.1467938E-3,8.8888034E-4,1.6663203E-4,1.0605552E-3,0E0,0E0,0E0,0E0,1.2312958E-4,0E0,0E0],"parents":[2147483647,0,0,1,1,2,2,3,3,8,8],"right_children":[2,4,6,8,-1,-1,-1,-1,10,-1,-1],"split_conditions":[4.166667E-1,2.916667E-1,7.5E-1,1.25E-1,-1.7223363E-3,-0E0,-4.0677667E-4,-8.772992E-4,3.75E-1,-0E0,5.1479024E-4],"split_indices":[2,2,2,2,0,0,0,0,0,0,0],"split_type":[0,0,0,0,0,0,0,0,0,0,0],"sum_hessian":[2.56E2,1.69E2,8.7E1,1.29E2,4E1,5.1E1,3.6E1,1.06E2,2.3E1,1.2E1,1.1E1],"tree_param":{"num_deleted":"0","num_feature":"4","num_nodes":"11","size_leaf_vector":"0"}},{"base_weights":[-2.720534E-3,-4.6773236E-3,5.312547E-4,-6.0942746E-3,-2.2468707E-3,3.43747E-3,-1.359289E-3,-2.689433E-3,-0E0,1.1838216E-2,-0E0,-3.1309016E-3,7.6836185E-4],"categories":[],"categories_nodes":[],"categories_segments":[],"categories_sizes":[],"default_left":[1,1,1,0,1,1,0,0,0,0,1,0,0],"id":42,"left_children":[1,3,5,-1,7,9,-1,-1,-1,-1,11,-1,-1],"loss_changes":[1.732444E-3,1.635931E-4,5.4708053E-4,0E0,4.66184E-5,1.4660769E-3,0E0,0E0,0E0,0E0,1.1789279E-4,0E0,0E0],"parents":[2147483647,0,0,1,1,2,2,4,4,5,5,10,10],"right_children":[2,4,6,-1,8,10,-1,-1,-1,-1,12,-1,-1],"split_conditions":[4.166667E-1,4.166667E-1,7.5E-1,-9.364343E-4,1.25E-1,1.25E-1,-2.088657E-4,-4.1325303E-4,-0E0,1.8190373E-3,3.75E-1,-4.8108824E-4,1.1806498E-4],"split_indices":[2,1,2,0,2,1,0,0,0,0,1,0,0],"split_type":[0,0,0,0,0,0,0,0,0,0,0,0,0],"sum_hessian":[2.42E2,1.6E2,8.2E1,8.9E1,7.1E1,4.2E1,4E1,5.6E1,1.5E1,1.4E1,2.8E1,1.1E1,1.7E1],"tree_param":{"num_deleted":"0","num_feature":"4","num_nodes":"13","size_leaf_vector":"0"}},{"base_weights":[3.296709E-3,1.0432349E-2,-9.888792E-4,1.6795386E-2,3.9157323E-3,1.3425685E-3,-3.2923324E-3,-0E0,6.5954854E-3,-1.1088516E-3,4.0241773E-3,-7.5094635E-3,-0E0],"categories":[],"categories_nodes":[],"categories_segments":[],"categories_sizes":[],"default_left":[1,1,1,0,1,1,1,0,0,0,0,0,0],"id":43,"left_children":[1,3,5,-1,7,9,11,-1,-1,-1,-1,-1,-1],"loss_changes":[8.420187E-3,3.2675145E-3,9.444711E-4,0E0,8.251134E-4,5.890167E-4,1.5622155E-3,0E0,0E0,0E0,0E0,0E0,0E0],"parents":[2147483647,0,0,1,1,2,2,4,4,5,5,6,6],"right_children":[2,4,6,-1,8,10,12,-1,-1,-1,-1,-1,-1],"split_conditions":[1.25E-1,2.5E-1,4.166667E-1,2.580746E-3,7.5E-1,2.916667E-1,7.5E-1,-0E0,1.0134494E-3,-1.7038398E-4,6.1834726E-4,-1.1538895E-3,-0E0],"split_indices":[1,2,1,0,2,1,1,0,0,0,0,0,0],"split_type":[0,0,0,0,0,0,0,0,0,0,0,0,0],"sum_hessian":[2.61E2,1.02E2,1.59E2,4.8E1,5.4E1,6.9E1,9E1,1.6E1,3.8E1,2.7E1,4.2E1,4.5E1,4.5E1],"tree_param":{"num_deleted":"0","num_feature":"4","num_nodes":"13","size_leaf_vector":"0"}},{"base_weights":[-3.1158319E-3,-1.0933134E-2,2.922005E-4,1.2308585E-3,-2.6075615E-2,-1.1875333E-4,6.5525547E-3,1.6199425E-2,-1.2164343E-2,-3.0220293E-3,1.9442523E-3,9.710142E-3,-0E0,-3.3723074E-3,-0E0,6.1098025E-3,-0E0,-7.1723724E-4,2.3507541E-4,-5.8265766E-3,-0E0,5.1681446E-3,-6.7670527E-4,-0E0,-1.1537016E-3],"categories":[],"categories_nodes":[],"categories_segments":[],"categories_sizes":[],"default_left":[1,1,1,1,0,1,1,0,0,1,1,0,0,0,0,0,1,1,1,0,0,0,1,0,0],"id":44,"left_children":[1,3,5,7,-1,9,11,-1,-1,13,15,-1,-1,-1,-1,-1,17,19,21,-1,-1,-1,23,-1,-1],"loss_changes":[6.888273E-3,1.5337328E-2,7.1817025E-4,8.409273E-3,0E0,9.2455145E-4,5.9024466E-4,0E0,0E0,8.949835E-6,6.8337447E-4,0E0,0E0,0E0,0E0,0E0,1.3784628E-5,3.272348E-4,3.2556482E-4,0E0,0E0,0E0,8.2326615E-6,0E0,0E0],"parents":[2147483647,0,0,1,1,2,2,3,3,5,5,6,6,9,9,10,10,16,16,17,17,18,18,22,22],"right_children":[2,4,6,8,-1,10,12,-1,-1,14,16,-1,-1,-1,-1,-1,18,20,22,-1,-1,-1,24,-1,-1],"split_conditions":[1.05E1,1.6666667E-1,7.5E-1,7.5E0,-4.006728E-3,1.8E1,1.8E1,2.489172E-3,-1.8691493E-3,4.166667E-1,1.25E-1,1.4920415E-3,-0E0,-5.181822E-4,-0E0,9.388203E-4,3.6E1,4.166667E-1,2.916667E-1,-8.9530036E-4,-0E0,7.94127E-4,4.166667E-1,-0E0,-1.7727553E-4],"split_indices":[3,2,2,3,0,3,3,0,0,2,2,0,0,0,0,0,3,2,2,0,0,0,2,0,0],"split_type":[0,0,0,0,0,0,0,0,0,0,0,0,0,0,0,0,0,0,0,0,0,0,0,0,0],"sum_hessian":[2.4E2,7.7E1,1.63E2,4.1E1,3.6E1,1.46E2,1.7E1,2.1E1,2E1,7E1,7.6E1,1.4E1,3E0,5.7E1,1.3E1,2.6E1,5E1,2.4E1,2.6E1,1E1,1.4E1,1.2E1,1.4E1,3E0,1.1E1],"tree_param":{"num_deleted":"0","num_feature":"4","num_nodes":"25","size_leaf_vector":"0"}},{"base_weights":[-0E0,-1.0722835E-2,2.2780371E-3,-1.4521765E-2,-0E0,-0E0,1.4563426E-2,3.7704024E-3,-5.204781E-3,1.9391546E-2,-0E0,1.30827185E-2,9.999503E-4,-7.6455614E-3,1.3052659E-4,4.182057E-3,3.037514E-2,3.6156874E-3,-3.2260022E-4,4.4011325E-3,-0E0,-2.7018087E-3,7.190349E-5,-7.099531E-3,-0E0,9.761603E-4,-0E0],"categories":[],"categories_nodes":[],"categories_segments":[],"categories_sizes":[],"default_left":[1,1,1,0,0,1,1,1,1,1,0,0,1,0,0,0,0,1,1,0,0,1,1,0,0,0,0],"id":45,"left_children":[1,3,5,-1,-1,7,9,11,13,15,-1,-1,17,-1,-1,-1,-1,19,21,-1,-1,23,25,-1,-1,-1,-1],"loss_changes":[5.7731224E-3,1.4016828E-3,5.3047184E-3,0E0,0E0,3.3748518E-3,1.9103503E-3,2.0291158E-3,1.2606248E-3,2.070359E-3,0E0,0E0,4.4354852E-4,0E0,3.7148092E-7,0E0,0E0,9.692833E-5,1.6344381E-4,0E0,0E0,4.874664E-4,7.5171242E-6,0E0,0E0,0E0,0E0],"parents":[2147483647,0,0,1,1,2,2,5,5,6,6,7,7,8,8,9,9,12,12,17,17,18,18,21,21,22,22],"right_children":[2,4,6,-1,-1,8,10,12,14,16,-1,-1,18,-1,-1,-1,-1,20,22,-1,-1,24,26,-1,-1,-1,-1],"split_conditions":[7.5E0,6.666667E-1,7.5E-1,-2.231386E-3,-0E0,2.916667E-1,1.8E1,1.05E1,3.6E1,1.05E1,-0E0,2.010265E-3,1.8E1,-1.1748021E-3,2.0056461E-5,6.426067E-4,4.6673845E-3,1.25E-1,3.6E1,6.762694E-4,-0E0,1.25E-1,1.25E-1,-1.0909E-3,-0E0,1.4999488E-4,-0E0],"split_indices":[3,1,1,0,0,1,3,3,3,3,0,0,3,0,0,0,0,1,3,0,0,1,1,0,0,0,0],"split_type":[0,0,0,0,0,0,0,0,0,0,0,0,0,0,0,0,0,0,0,0,0,0,0,0,0,0,0],"sum_hessian":[2.45E2,4.1E1,2.04E2,2.9E1,1.2E1,1.74E2,3E1,1.04E2,7E1,2.2E1,8E0,2E1,8.4E1,5.4E1,1.6E1,1.1E1,1.1E1,4E1,4.4E1,3.2E1,8E0,2.3E1,2.1E1,1.3E1,1E1,8E0,1.3E1],"tree_param":{"num_deleted":"0","num_feature":"4","num_nodes":"27","size_leaf_vector":"0"}},{"base_weights":[3.0209273E-3,5.2801096E-3,-7.3866436E-4,-4.9159173E-3,2.2209736E-3,-1.0955325E-2,-7.501063E-4],"categories":[],"categories_nodes":[],"categories_segments":[],"categories_sizes":[],"default_left":[1,0,1,1,0,0,0],"id":46,"left_children":[1,-1,3,5,-1,-1,-1],"loss_changes":[2.376823E-3,0E0,1.2131839E-3,5.382432E-4,0E0,0E0,0E0],"parents":[2147483647,0,0,2,2,3,3],"right_children":[2,-1,4,6,-1,-1,-1],"split_conditions":[4.166667E-1,8.113313E-4,7.5E-1,1.25E-1,3.4127047E-4,-1.6833739E-3,-1.1525987E-4],"split_indices":[1,0,1,2,0,0,0],"split_type":[0,0,0,0,0,0,0],"sum_hessian":[2.55E2,1.67E2,8.8E1,4.3E1,4.5E1,1.3E1,3E1],"tree_param":{"num_deleted":"0","num_feature":"4","num_nodes":"7","size_leaf_vector":"0"}},{"base_weights":[8.026736E-4,-1.8460582E-3,1.4457648E-2,-5.1940237E-3,2.5535235E-3,-7.8117508E-3,-2.623818E-3,6.623085E-3,-2.2925633E-5,-3.628204E-3,-0E0,-0E0,-1.0161812E-3],"categories":[],"categories_nodes":[],"categories_segments":[],"categories_sizes":[],"default_left":[1,1,0,1,1,0,1,0,1,0,0,0,0],"id":47,"left_children":[1,3,-1,5,7,-1,9,-1,11,-1,-1,-1,-1],"loss_changes":[9.302474E-3,3.0539103E-3,0E0,3.159414E-4,1.1453651E-3,0E0,3.279878E-4,0E0,1.443748E-5,0E0,0E0,0E0,0E0],"parents":[2147483647,0,0,1,1,3,3,4,4,6,6,8,8],"right_children":[2,4,-1,6,8,-1,10,-1,12,-1,-1,-1,-1],"split_conditions":[7.5E-1,2.916667E-1,2.221534E-3,3.75E-1,4.166667E-1,-1.2003384E-3,1.25E-1,1.0176903E-3,3.75E-1,-5.5750273E-4,-0E0,-0E0,-1.5614442E-4],"split_indices":[1,1,0,0,1,0,1,0,0,0,0,0,0],"split_type":[0,0,0,0,0,0,0,0,0,0,0,0,0],"sum_hessian":[2.41E2,1.99E2,4.2E1,1.19E2,8E1,5E1,6.9E1,3.8E1,4.2E1,6.1E1,8E0,2.8E1,1.4E1],"tree_param":{"num_deleted":"0","num_feature":"4","num_nodes":"13","size_leaf_vector":"0"}},{"base_weights":[1.3081017E-3,1.5305544E-2,-7.7144604E-4,-2.5924002E-3,3.3761613E-2,-9.509051E-3,1.0889742E-3,-2.5037217E-3,-1.7489431E-2,-1.1714351E-3,3.6821745E-3,-3.0927114E-2,-3.4341014E-3,-7.956771E-3,3.571899E-3,1.0738157E-2,1.9855592E-4,7.3013767E-3,-0E0,7.2295135E-3,-7.1704625E-3,-9.6100377E-4,1.1520552E-2,1.5892953E-2,-3.1038378E-3],"categories":[],"categories_nodes":[],"categories_segments":[],"categories_sizes":[],"default_left":[1,1,1,0,0,1,1,0,1,1,1,0,0,0,1,0,1,0,0,1,0,0,1,0,0],"id":48,"left_children":[1,3,5,-1,-1,7,9,-1,11,13,15,-1,-1,-1,17,-1,19,-1,-1,21,-1,-1,23,-1,-1],"loss_changes":[8.126863E-3,1.3340472E-2,3.9673666E-3,0E0,0E0,1.4754042E-3,1.154155E-3,0E0,1.6151783E-3,2.9395493E-3,1.7535143E-3,0E0,0E0,0E0,4.2611326E-4,0E0,3.422568E-3,0E0,0E0,1.7909444E-3,0E0,0E0,2.3847031E-3,0E0,0E0],"parents":[2147483647,0,0,1,1,2,2,5,5,6,6,8,8,9,9,10,10,14,14,16,16,19,19,22,22],"right_children":[2,4,6,-1,-1,8,10,-1,12,14,16,-1,-1,-1,18,-1,20,-1,-1,22,-1,-1,24,-1,-1],"split_conditions":[7.5E0,1.6666667E-1,1.05E1,-3.9834314E-4,5.1877433E-3,1.6666667E-1,1.8E1,-3.84717E-4,6.666667E-1,1.25E-1,1.25E-1,-4.7522E-3,-5.276773E-4,-1.2226219E-3,4.166667E-1,1.6500042E-3,3.6E1,1.1219153E-3,-0E0,2.916667E-1,-1.1017993E-3,-1.4766597E-4,7.5E-1,2.44208E-3,-4.7692965E-4],"split_indices":[3,2,3,0,0,2,3,0,2,2,2,0,0,0,2,0,3,0,0,2,0,0,2,0,0],"split_type":[0,0,0,0,0,0,0,0,0,0,0,0,0,0,0,0,0,0,0,0,0,0,0,0,0],"sum_hessian":[2.56E2,3.6E1,2.2E2,1.7E1,1.9E1,4.3E1,1.77E2,2.6E1,1.7E1,8.5E1,9.2E1,7E0,1E1,3.9E1,4.6E1,2.6E1,6.6E1,1.9E1,2.7E1,3.7E1,2.9E1,9E0,2.8E1,2.4E1,4E0],"tree_param":{"num_deleted":"0","num_feature":"4","num_nodes":"25","size_leaf_vector":"0"}},{"base_weights":[2.778152E-3,3.988944E-3,-2.76785E-3,6.6791573E-3,-0E0,-7.95368E-4,5.461359E-4,-6.3945376E-3,5.956572E-4,1.4835587E-3,-0E0],"categories":[],"categories_nodes":[],"categories_segments":[],"categories_sizes":[],"default_left":[1,1,0,0,1,1,0,0,1,0,0],"id":49,"left_children":[1,3,-1,-1,5,7,-1,-1,9,-1,-1],"loss_changes":[1.775814E-3,2.391305E-3,0E0,0E0,3.9695802E-5,5.964726E-4,0E0,0E0,1.9037536E-5,0E0,0E0],"parents":[2147483647,0,0,1,1,4,4,5,5,8,8],"right_children":[2,4,-1,-1,6,8,-1,-1,10,-1,-1],"split_conditions":[7.5E-1,4.166667E-1,-4.2530242E-4,1.0263063E-3,7.5E-1,1.25E-1,8.3918174E-5,-9.825722E-4,3.75E-1,2.2796073E-4,-0E0],"split_indices":[2,1,0,0,1,2,0,0,2,0,0],"split_type":[0,0,0,0,0,0,0,0,0,0,0],"sum_hessian":[2.56E2,2.17E2,3.9E1,1.31E2,8.6E1,4.2E1,4.4E1,1.5E1,2.7E1,1.3E1,1.4E1],"tree_param":{"num_deleted":"0","num_feature":"4","num_nodes":"11","size_leaf_vector":"0"}},{"base_weights":[4.0036193E-3,3.0106327E-3,7.1731405E-3,1.715411E-3,7.3097376E-3,-0E0,3.2000775E-3,9.362664E-4,-0E0,3.710297E-3,-0E0,-4.6323234E-4,-0E0],"categories":[],"categories_nodes":[],"categories_segments":[],"categories_sizes":[],"default_left":[1,1,0,1,0,1,1,0,1,0,0,0,0],"id":50,"left_children":[1,3,-1,5,-1,7,9,-1,11,-1,-1,-1,-1],"loss_changes":[3.0750828E-4,6.9448026E-4,0E0,2.9135027E-4,0E0,3.506618E-5,1.1301582E-4,0E0,2.7901801E-6,0E0,0E0,0E0,0E0],"parents":[2147483647,0,0,1,1,3,3,5,5,6,6,8,8],"right_children":[2,4,-1,6,-1,8,10,-1,12,-1,-1,-1,-1],"split_conditions":[7.5E-1,7.5E-1,1.1022107E-3,2.916667E-1,1.1232E-3,1.25E-1,4.166667E-1,1.4386486E-4,3.75E-1,5.70117E-4,-0E0,-7.117938E-5,-0E0],"split_indices":[0,1,0,0,0,1,1,0,1,0,0,0,0],"split_type":[0,0,0,0,0,0,0,0,0,0,0,0,0],"sum_hessian":[2.48E2,2E2,4.8E1,1.62E2,3.8E1,8.7E1,7.5E1,4E1,4.7E1,6.4E1,1.1E1,1.3E1,3.4E1],"tree_param":{"num_deleted":"0","num_feature":"4","num_nodes":"13","size_leaf_vector":"0"}},{"base_weights":[-3.3904328E-3,-1.3308904E-2,9.783308E-4,-1.0245725E-2,-2.0173933E-2,1.08399065E-2,-3.4201238E-3,-4.7212355E-2,-0E0,1.6250817E-2,1.0563763E-3,-9.425136E-3,6.3966954E-4,-0E0,-1.2420038E-2,-1.388119E-3,1.8187203E-2,-2.8205093E-2,-2.1322244E-3,-0E0,-3.3255976E-3,1.15750665E-2,-1.7198045E-2,2.8673327E-3,-2.7023244E-3,-1.2834876E-2,1.1871045E-3,-7.330166E-3,-0E0],"categories":[],"categories_nodes":[],"categories_segments":[],"categories_sizes":[],"default_left":[1,1,1,0,1,1,1,0,0,0,0,1,1,0,1,1,0,0,1,1,1,0,0,0,1,0,0,0,0],"id":51,"left_children":[1,3,5,-1,7,9,11,-1,-1,-1,-1,13,15,-1,17,19,-1,-1,21,23,25,-1,-1,-1,27,-1,-1,-1,-1],"loss_changes":[1.1449024E-2,2.6900414E-4,7.7620638E-3,0E0,9.697269E-3,2.1608071E-3,3.2117087E-3,0E0,0E0,0E0,0E0,1.6399785E-3,3.0576661E-3,0E0,5.0870553E-3,1.92656E-4,0E0,0E0,5.631558E-3,2.1921858E-4,1.6997608E-3,0E0,0E0,0E0,3.9607796E-4,0E0,0E0,0E0,0E0],"parents":[2147483647,0,0,1,1,2,2,4,4,5,5,6,6,11,11,12,12,14,14,15,15,18,18,19,19,20,20,24,24],"right_children":[2,4,6,-1,8,10,12,-1,-1,-1,-1,14,16,-1,18,20,-1,-1,22,24,26,-1,-1,-1,28,-1,-1,-1,-1],"split_conditions":[1.05E1,6.666667E-1,1.25E-1,-1.5743381E-3,7.5E0,1.8E1,1.8E1,-7.254558E-3,-0E0,2.4970688E-3,1.6232072E-4,2.916667E-1,7.5E-1,-0E0,4.166667E-1,4.166667E-1,2.79461E-3,-4.3339394E-3,7.5E-1,3.6E1,3.6E1,1.7786021E-3,-2.642618E-3,4.4058874E-4,2.916667E-1,-1.972182E-3,1.8240816E-4,-1.1263391E-3,-0E0],"split_indices":[3,0,0,0,3,3,3,0,0,0,0,0,0,0,0,0,0,0,0,3,3,0,0,0,0,0,0,0,0],"split_type":[0,0,0,0,0,0,0,0,0,0,0,0,0,0,0,0,0,0,0,0,0,0,0,0,0,0,0,0,0],"sum_hessian":[2.51E2,8E1,1.71E2,6E1,2E1,5.6E1,1.15E2,8E0,1.2E1,3.3E1,2.3E1,5.1E1,6.4E1,1.1E1,4E1,5.5E1,9E0,1.4E1,2.6E1,2.8E1,2.7E1,1.2E1,1.4E1,1.6E1,1.2E1,1.2E1,1.5E1,9E0,3E0],"tree_param":{"num_deleted":"0","num_feature":"4","num_nodes":"29","size_leaf_vector":"0"}},{"base_weights":[6.709662E-4,5.9497743E-3,-1.0747615E-3,2.1575255E-2,-6.216117E-3,-4.7849556E-3,2.1077152E-3,2.9500313E-2,1.1239529E-2,5.7121477E-4,4.6057673E-3,1.675632E-3,-0E0,-0E0,1.9829823E-2,-0E0,3.4026105E-3,-0E0,-2.3132828E-3,2.9061108E-3,-1.7918019E-3],"categories":[],"categories_nodes":[],"categories_segments":[],"categories_sizes":[],"default_left":[1,1,1,1,0,0,1,0,0,1,1,1,0,1,0,1,0,0,0,0,0],"id":52,"left_children":[1,3,5,7,-1,-1,9,-1,-1,11,13,15,-1,17,-1,19,-1,-1,-1,-1,-1],"loss_changes":[2.4657878E-3,1.3450776E-2,2.202539E-3,6.4646546E-4,0E0,0E0,9.7332784E-5,0E0,0E0,1.18858996E-4,1.8936577E-3,6.803646E-5,0E0,1.6068427E-5,0E0,1.9176328E-4,0E0,0E0,0E0,0E0,0E0],"parents":[2147483647,0,0,1,1,2,2,3,3,6,6,9,9,10,10,11,11,13,13,15,15],"right_children":[2,4,6,8,-1,-1,10,-1,-1,12,14,16,-1,18,-1,20,-1,-1,-1,-1,-1],"split_conditions":[1.05E1,1.6666667E-1,2.916667E-1,7.5E0,-9.551564E-4,-7.352469E-4,7.5E-1,4.5329607E-3,1.727044E-3,3.6E1,3.6E1,1.8E1,-0E0,1.8E1,3.0470118E-3,4.166667E-1,5.228385E-4,-0E0,-3.554545E-4,4.4654732E-4,-2.7532477E-4],"split_indices":[3,1,1,3,0,0,1,0,0,3,3,3,0,3,0,1,0,0,0,0,0],"split_type":[0,0,0,0,0,0,0,0,0,0,0,0,0,0,0,0,0,0,0,0,0],"sum_hessian":[2.43E2,6.7E1,1.76E2,3.1E1,3.6E1,8.8E1,8.8E1,1.5E1,1.6E1,6.6E1,2.2E1,5E1,1.6E1,1.6E1,6E0,3.2E1,1.8E1,1.3E1,3E0,1.7E1,1.5E1],"tree_param":{"num_deleted":"0","num_feature":"4","num_nodes":"21","size_leaf_vector":"0"}},{"base_weights":[2.6244577E-4,5.088896E-3,-2.7386246E-3,1.4474796E-2,-3.4530647E-4,-4.0638475E-3,-0E0,-0E0,-5.286492E-3,-6.37306E-4,-0E0],"categories":[],"categories_nodes":[],"categories_segments":[],"categories_sizes":[],"default_left":[1,1,1,0,0,1,0,1,0,0,0],"id":53,"left_children":[1,3,5,-1,-1,7,-1,9,-1,-1,-1],"loss_changes":[3.8896916E-3,6.0628923E-3,6.7066366E-4,0E0,0E0,4.3058884E-4,0E0,6.4996507E-6,0E0,0E0,0E0],"parents":[2147483647,0,0,1,1,2,2,5,5,7,7],"right_children":[2,4,6,-1,-1,8,-1,10,-1,-1,-1],"split_conditions":[1.25E-1,2.5E-1,7.5E-1,2.224169E-3,-5.3059117E-5,2.916667E-1,-0E0,3.75E-1,-8.12312E-4,-9.79272E-5,-0E0],"split_indices":[2,0,2,0,0,2,0,0,0,0,0],"split_type":[0,0,0,0,0,0,0,0,0,0,0],"sum_hessian":[2.61E2,1.06E2,1.55E2,4.2E1,6.4E1,1.11E2,4.4E1,3E1,8.1E1,1.6E1,1.4E1],"tree_param":{"num_deleted":"0","num_feature":"4","num_nodes":"11","size_leaf_vector":"0"}},{"base_weights":[5.747848E-3,2.7277915E-2,1.9739808E-3,8.61831E-3,4.2317092E-2,3.8807513E-4,6.6870875E-3,6.838594E-3,-1.2912211E-3,1.4164101E-4,1.1715865E-2,-5.076494E-3,3.2280043E-2,7.104507E-4,-1.4220591E-2,4.3069918E-4,-0E0,2.8790587E-3,-1.2898353E-3,-2.0080956E-2,-0E0,3.989343E-3,-0E0,-0E0,-4.743504E-3,6.5374835E-3,-0E0,-0E0,2.4146219E-3,-1.1786016E-3,3.464085E-3,-0E0,-1.0752203E-2],"categories":[],"categories_nodes":[],"categories_segments":[],"categories_sizes":[],"default_left":[1,1,1,0,0,1,1,1,1,1,0,0,0,1,1,0,0,1,1,0,0,1,1,1,1,0,0,0,0,0,0,0,0],"id":54,"left_children":[1,3,5,-1,-1,7,9,11,13,15,-1,-1,-1,17,19,-1,-1,21,23,-1,-1,25,27,29,31,-1,-1,-1,-1,-1,-1,-1,-1],"loss_changes":[1.8710665E-2,7.456027E-3,1.256021E-3,0E0,0E0,2.0558601E-3,9.6349814E-4,1.3390186E-2,3.8884815E-3,3.0434928E-6,0E0,0E0,0E0,5.336418E-4,1.6014711E-3,0E0,0E0,5.9038925E-5,3.0936918E-4,0E0,0E0,6.2382163E-4,5.2489493E-5,1.6487167E-4,8.8944857E-4,0E0,0E0,0E0,0E0,0E0,0E0,0E0,0E0],"parents":[2147483647,0,0,1,1,2,2,5,5,6,6,7,7,8,8,9,9,13,13,14,14,17,17,18,18,21,21,22,22,23,23,24,24],"right_children":[2,4,6,-1,-1,8,10,12,14,16,-1,-1,-1,18,20,-1,-1,22,24,-1,-1,26,28,30,32,-1,-1,-1,-1,-1,-1,-1,-1],"split_conditions":[7.5E0,1.6666667E-1,3.6E1,1.3242727E-3,6.502362E-3,1.05E1,4.166667E-1,1.6666667E-1,7.5E-1,2.916667E-1,1.8002369E-3,-7.800442E-4,4.9600885E-3,2.916667E-1,1.8E1,6.618039E-5,-0E0,1.8E1,1.8E1,-3.0856004E-3,-0E0,1.25E-1,1.25E-1,4.166667E-1,4.166667E-1,1.004537E-3,-0E0,-0E0,3.7102608E-4,-1.8110163E-4,5.3228455E-4,-0E0,-1.6521625E-3],"split_indices":[3,0,3,0,0,3,0,0,0,0,0,0,0,0,3,0,0,3,3,0,0,0,0,0,0,0,0,0,0,0,0,0,0],"split_type":[0,0,0,0,0,0,0,0,0,0,0,0,0,0,0,0,0,0,0,0,0,0,0,0,0,0,0,0,0,0,0,0,0],"sum_hessian":[2.47E2,3.5E1,2.12E2,1.7E1,1.8E1,1.66E2,4.6E1,4E1,1.26E2,2.4E1,2.2E1,2.6E1,1.4E1,1.06E2,2E1,1.9E1,5E0,6.2E1,4.4E1,1.4E1,6E0,3.6E1,2.6E1,2.7E1,1.7E1,2.8E1,8E0,1.7E1,9E0,1.5E1,1.2E1,6E0,1.1E1],"tree_param":{"num_deleted":"0","num_feature":"4","num_nodes":"33","size_leaf_vector":"0"}},{"base_weights":[-0E0,3.1122267E-3,-1.5075957E-2,-1.1808554E-3,3.9915107E-3,-2.8445665E-3,-2.6792135E-2,5.557541E-3,-0E0,-1.9850077E-2,1.291881E-2,-3.87532E-2,-0E0,1.3897208E-3,9.31216E-3,1.699305E-3,-2.998006E-3,-0E0,-1.2917647E-3,3.20959E-3,-7.635994E-4,-0E0,1.135755E-2,-7.1489876E-3,-0E0,-4.4817147E-3,-0E0],"categories":[],"categories_nodes":[],"categories_segments":[],"categories_sizes":[],"default_left":[1,1,1,0,1,1,1,1,1,0,0,0,1,1,1,0,1,0,0,0,1,0,0,0,0,0,0],"id":55,"left_children":[1,3,5,-1,7,9,11,13,15,-1,-1,-1,17,19,21,-1,23,-1,-1,-1,25,-1,-1,-1,-1,-1,-1],"loss_changes":[1.1198386E-2,8.6287863E-4,4.499262E-3,0E0,1.2759012E-3,6.220757E-3,4.385311E-3,1.5216414E-3,2.587348E-4,0E0,0E0,0E0,8.347832E-6,3.7617475E-4,1.0733986E-3,0E0,4.0668627E-4,0E0,0E0,0E0,1.8983227E-4,0E0,0E0,0E0,0E0,0E0,0E0],"parents":[2147483647,0,0,1,1,2,2,4,4,5,5,6,6,7,7,8,8,12,12,13,13,14,14,16,16,20,20],"right_children":[2,4,6,-1,8,10,12,14,16,-1,-1,-1,18,20,22,-1,24,-1,-1,-1,26,-1,-1,-1,-1,-1,-1],"split_conditions":[7.5E-1,7.5E0,1.05E1,-1.8144795E-4,4.166667E-1,7.5E0,1.8E1,1.25E-1,1.8E1,-3.050124E-3,1.9850791E-3,-5.954741E-3,3.6E1,1.8E1,1.05E1,2.6111188E-4,3.6E1,-0E0,-1.9849003E-4,4.931793E-4,3.6E1,-0E0,1.745179E-3,-1.0984995E-3,-0E0,-6.886515E-4,-0E0],"split_indices":[0,3,3,0,0,3,3,0,3,0,0,0,3,3,3,0,3,0,0,0,3,0,0,0,0,0,0],"split_type":[0,0,0,0,0,0,0,0,0,0,0,0,0,0,0,0,0,0,0,0,0,0,0,0,0,0,0],"sum_hessian":[2.35E2,1.94E2,4.1E1,2.4E1,1.7E2,2.2E1,1.9E1,1.29E2,4.1E1,1.2E1,1E1,1.2E1,7E0,6.7E1,6.2E1,1.8E1,2.3E1,2E0,5E0,4.8E1,1.9E1,1.2E1,5E1,1.2E1,1.1E1,1E1,9E0],"tree_param":{"num_deleted":"0","num_feature":"4","num_nodes":"27","size_leaf_vector":"0"}},{"base_weights":[-3.0421722E-3,-7.972442E-3,5.928716E-3,-1.4212854E-3,-2.5333406E-2,2.5754205E-3,-1.1834764E-2,-0E0,6.34542E-3,-0E0,1.2503853E-2],"categories":[],"categories_nodes":[],"categories_segments":[],"categories_sizes":[],"default_left":[1,1,0,1,0,1,0,0,1,0,0],"id":56,"left_children":[1,3,-1,5,-1,7,-1,-1,9,-1,-1],"loss_changes":[1.1860053E-2,1.8661149E-2,0E0,5.799163E-3,0E0,8.526575E-4,0E0,0E0,1.0523411E-3,0E0,0E0],"parents":[2147483647,0,0,1,1,3,3,5,5,8,8],"right_children":[2,4,-1,6,-1,8,-1,-1,10,-1,-1],"split_conditions":[4.166667E-1,2.916667E-1,9.1099495E-4,7.5E-1,-3.8926818E-3,3.75E-1,-1.8185067E-3,-0E0,1.25E-1,-0E0,1.9213177E-3],"split_indices":[0,0,0,2,0,2,0,0,0,0,0],"split_type":[0,0,0,0,0,0,0,0,0,0,0],"sum_hessian":[2.66E2,1.75E2,9.1E1,1.29E2,4.6E1,9E1,3.9E1,5.4E1,3.6E1,2E1,1.6E1],"tree_param":{"num_deleted":"0","num_feature":"4","num_nodes":"11","size_leaf_vector":"0"}},{"base_weights":[1.7401774E-3,5.4504736E-3,-4.5091077E-3,3.5141737E-3,1.031752E-2,-2.479407E-3,-1.2814568E-2,-0E0,-3.6529256E-3],"categories":[],"categories_nodes":[],"categories_segments":[],"categories_sizes":[],"default_left":[1,1,1,0,0,1,0,0,0],"id":57,"left_children":[1,3,5,-1,-1,7,-1,-1,-1],"loss_changes":[5.562285E-3,8.0884015E-4,7.0569187E-4,0E0,0E0,7.781331E-5,0E0,0E0,0E0],"parents":[2147483647,0,0,1,1,2,2,5,5],"right_children":[2,4,6,-1,-1,8,-1,-1,-1],"split_conditions":[4.166667E-1,2.916667E-1,3.75E-1,5.3998106E-4,1.58537E-3,7.5E-1,-1.9690616E-3,-0E0,-5.613014E-4],"split_indices":[1,1,0,0,0,1,0,0,0],"split_type":[0,0,0,0,0,0,0,0,0],"sum_hessian":[2.38E2,1.54E2,8.4E1,1.17E2,3.7E1,7.2E1,1.2E1,3.3E1,3.9E1],"tree_param":{"num_deleted":"0","num_feature":"4","num_nodes":"9","size_leaf_vector":"0"}},{"base_weights":[-1.6342956E-3,1.3233128E-3,-3.6957555E-3,-0E0,1.9179552E-3,-5.411514E-3,-0E0,-7.171519E-3,-0E0],"categories":[],"categories_nodes":[],"categories_segments":[],"categories_sizes":[],"default_left":[1,1,1,0,0,1,0,0,0],"id":58,"left_children":[1,3,5,-1,-1,7,-1,-1,-1],"loss_changes":[1.732014E-3,2.7209986E-5,1.1882831E-3,0E0,0E0,8.646683E-4,0E0,0E0,0E0],"parents":[2147483647,0,0,1,1,2,2,5,5],"right_children":[2,4,6,-1,-1,8,-1,-1,-1],"split_conditions":[1.25E-1,2.5E-1,7.5E-1,-0E0,2.9470926E-4,4.166667E-1,-0E0,-1.1019616E-3,-0E0],"split_indices":[1,0,1,0,0,0,0,0,0],"split_type":[0,0,0,0,0,0,0,0,0],"sum_hessian":[2.66E2,1E2,1.66E2,4.5E1,5.5E1,1.18E2,4.8E1,8.4E1,3.4E1],"tree_param":{"num_deleted":"0","num_feature":"4","num_nodes":"9","size_leaf_vector":"0"}},{"base_weights":[-1.09502005E-4,-3.8147424E-3,2.6479168E-3,-6.6767684E-3,2.4754496E-4,-4.12417E-3,4.302865E-3,-0E0,-1.1568236E-2,3.4549609E-3,-1.3602251E-3,-0E0,-1.1688173E-2,6.8081864E-3,2.438928E-3,-6.57079E-4,-0E0,-1.4858597E-2,-0E0,-0E0,5.883043E-3,4.148884E-3,-1.1415811E-2,7.992852E-3,-0E0,-0E0,5.6580375E-3,3.8059196E-3,-3.3786497E-3,-0E0,1.9226309E-2],"categories":[],"categories_nodes":[],"categories_segments":[],"categories_sizes":[],"default_left":[1,1,1,1,1,1,1,1,1,1,1,0,0,1,1,0,0,0,0,0,0,0,0,0,0,1,1,0,0,0,0],"id":59,"left_children":[1,3,5,7,9,11,13,15,17,19,21,-1,-1,23,25,-1,-1,-1,-1,-1,-1,-1,-1,-1,-1,27,29,-1,-1,-1,-1],"loss_changes":[2.588038E-3,1.6124117E-3,1.5213841E-3,2.2327474E-3,3.0358526E-4,1.1458892E-3,1.0285177E-4,5.6139643E-6,1.5783422E-3,1.0622869E-4,1.2795364E-3,0E0,0E0,2.1915056E-4,7.324904E-4,0E0,0E0,0E0,0E0,0E0,0E0,0E0,0E0,0E0,0E0,4.913126E-4,2.8825863E-3,0E0,0E0,0E0,0E0],"parents":[2147483647,0,0,1,1,2,2,3,3,4,4,5,5,6,6,7,7,8,8,9,9,10,10,13,13,14,14,25,25,26,26],"right_children":[2,4,6,8,10,12,14,16,18,20,22,-1,-1,24,26,-1,-1,-1,-1,-1,-1,-1,-1,-1,-1,28,30,-1,-1,-1,-1],"split_conditions":[2.916667E-1,1.8E1,7.5E0,1.05E1,1.25E-1,6.666667E-1,4.166667E-1,7.5E0,1.25E-1,3.6E1,3.6E1,-0E0,-1.7959818E-3,3.6E1,7.5E-1,-1.0096547E-4,-0E0,-2.2831429E-3,-0E0,-0E0,9.039769E-4,6.3750945E-4,-1.7541313E-3,1.2281659E-3,-0E0,1.8E1,1.8E1,5.8481016E-4,-5.191567E-4,-0E0,2.954277E-3],"split_indices":[0,3,3,3,0,0,0,3,0,3,3,0,0,3,0,0,0,0,0,0,0,0,0,0,0,3,3,0,0,0,0],"split_type":[0,0,0,0,0,0,0,0,0,0,0,0,0,0,0,0,0,0,0,0,0,0,0,0,0,0,0,0,0,0,0],"sum_hessian":[2.48E2,1.13E2,1.35E2,7.3E1,4E1,2.1E1,1.14E2,3.2E1,4.1E1,2.3E1,1.7E1,1E1,1.1E1,3.8E1,7.6E1,1.3E1,1.9E1,3.2E1,9E0,1.2E1,1.1E1,8E0,9E0,3.1E1,7E0,3.9E1,3.7E1,1.5E1,2.4E1,2.6E1,1.1E1],"tree_param":{"num_deleted":"0","num_feature":"4","num_nodes":"31","size_leaf_vector":"0"}},{"base_weights":[-5.081498E-3,-1.4868337E-3,-2.2632485E-2,-1.7047305E-2,7.493952E-4,-3.743448E-2,-9.593069E-3,-1.284646E-3,4.2132684E-3,-2.7357657E-3,2.6535853E-3,2.0316487E-2,2.7742167E-4,1.8969605E-2,-7.959095E-3,-6.9927284E-4,4.796639E-3,-0E0,-2.471218E-3],"categories":[],"categories_nodes":[],"categories_segments":[],"categories_sizes":[],"default_left":[1,1,1,0,1,0,0,1,1,0,1,0,1,0,0,1,0,0,0],"id":60,"left_children":[1,3,5,-1,7,-1,-1,9,11,-1,13,-1,15,-1,-1,17,-1,-1,-1],"loss_changes":[1.5283271E-2,8.342759E-3,5.9218165E-3,0E0,1.4606336E-3,0E0,0E0,6.324851E-4,3.987328E-3,0E0,4.148541E-3,0E0,4.7722043E-4,0E0,0E0,1.490048E-4,0E0,0E0,0E0],"parents":[2147483647,0,0,1,1,2,2,4,4,7,7,8,8,10,10,12,12,15,15],"right_children":[2,4,6,-1,8,-1,-1,10,12,-1,14,-1,16,-1,-1,18,-1,-1,-1],"split_conditions":[7.5E-1,7.5E0,1.05E1,-2.6194556E-3,2.916667E-1,-5.7521095E-3,-1.4740522E-3,3.6E1,1.05E1,-4.203724E-4,1.25E-1,3.1217916E-3,3.6E1,2.9148324E-3,-1.2229789E-3,4.166667E-1,7.370422E-4,-0E0,-3.797225E-4],"split_indices":[1,3,3,0,1,0,0,3,3,0,1,0,3,0,0,1,0,0,0],"split_type":[0,0,0,0,0,0,0,0,0,0,0,0,0,0,0,0,0,0,0],"sum_hessian":[2.6E2,2.18E2,4.2E1,3E1,1.88E2,1.8E1,2.4E1,1.1E2,7.8E1,8.9E1,2.1E1,1.3E1,6.5E1,1E1,1.1E1,4.5E1,2E1,1.7E1,2.8E1],"tree_param":{"num_deleted":"0","num_feature":"4","num_nodes":"19","size_leaf_vector":"0"}},{"base_weights":[-7.1706214E-5,9.256992E-3,-5.811223E-3,2.1984186E-2,5.9219315E-3,-2.5338423E-2,-1.908535E-3,-1.2295271E-2,1.0864627E-2,-4.6866488E-2,-0E0,1.5488616E-3,-3.0222388E-3,-0E0,6.716035E-3],"categories":[],"categories_nodes":[],"categories_segments":[],"categories_sizes":[],"default_left":[1,1,1,0,1,1,1,0,0,0,0,1,0,0,0],"id":61,"left_children":[1,3,5,-1,7,9,11,-1,-1,-1,-1,13,-1,-1,-1],"loss_changes":[1.3065185E-2,2.566284E-3,1.0623166E-2,0E0,6.6873226E-3,1.0952995E-2,5.767203E-4,0E0,0E0,0E0,0E0,4.4349546E-4,0E0,0E0,0E0],"parents":[2147483647,0,0,1,1,2,2,4,4,5,5,6,6,11,11],"right_children":[2,4,6,-1,8,10,12,-1,-1,-1,-1,14,-1,-1,-1],"split_conditions":[1.25E-1,7.5E0,7.5E0,3.3780471E-3,1.05E1,6.666667E-1,1.05E1,-1.8892674E-3,1.6694373E-3,-7.201413E-3,-0E0,6.666667E-1,-4.643913E-4,-0E0,1.0319728E-3],"split_indices":[2,3,3,0,3,2,3,0,0,0,0,2,0,0,0],"split_type":[0,0,0,0,0,0,0,0,0,0,0,0,0,0,0],"sum_hessian":[2.47E2,9.1E1,1.56E2,1.6E1,7.5E1,2.4E1,1.32E2,1.4E1,6.1E1,1.2E1,1.2E1,2.2E1,1.1E2,1.1E1,1.1E1],"tree_param":{"num_deleted":"0","num_feature":"4","num_nodes":"15","size_leaf_vector":"0"}},{"base_weights":[-8.9032506E-4,1.5036113E-3,-1.3908058E-2,2.4976998E-3,-1.0872054E-3,-0E0,3.783093E-3,-9.17605E-4,2.2296485E-4,1.1588875E-2,1.011783E-3,1.6663497E-2,1.7966292E-3,6.8731965E-3,-0E0],"categories":[],"categories_nodes":[],"categories_segments":[],"categories_sizes":[],"default_left":[1,1,0,1,0,1,1,0,0,1,1,0,0,0,0],"id":62,"left_children":[1,3,-1,5,-1,7,9,-1,-1,11,13,-1,-1,-1,-1],"loss_changes":[8.398318E-3,6.038025E-4,0E0,6.3707517E-4,0E0,3.0118668E-5,1.9241484E-3,0E0,0E0,4.3469132E-4,5.693642E-4,0E0,0E0,0E0,0E0],"parents":[2147483647,0,0,1,1,3,3,5,5,6,6,9,9,10,10],"right_children":[2,4,-1,6,-1,8,10,-1,-1,12,14,-1,-1,-1,-1],"split_conditions":[7.5E-1,7.5E-1,-2.1370852E-3,1.25E-1,-1.6705785E-4,2.5E-1,2.916667E-1,-1.4099739E-4,3.4260345E-5,3.75E-1,1.25E-1,2.5604805E-3,2.7606654E-4,1.0561219E-3,-0E0],"split_indices":[0,1,0,1,0,0,1,0,0,0,0,0,0,0,0],"split_type":[0,0,0,0,0,0,0,0,0,0,0,0,0,0,0],"sum_hessian":[2.51E2,2.09E2,4.2E1,1.64E2,4.5E1,4.8E1,1.16E2,3.5E1,1.3E1,2.6E1,9E1,1.4E1,1.2E1,1.4E1,7.6E1],"tree_param":{"num_deleted":"0","num_feature":"4","num_nodes":"15","size_leaf_vector":"0"}},{"base_weights":[-1.8464186E-4,-1.0711787E-2,4.1159797E-3,-1.5114151E-2,-0E0,-1.1959071E-3,7.6611284E-3,-0E0,-2.992666E-2,-2.2728492E-2,1.9532904E-2,-3.4117007E-3,-0E0,1.1502109E-2,-1.9279947E-3,7.1753166E-3,-1.3740199E-2,5.745226E-3,-1.474877E-2],"categories":[],"categories_nodes":[],"categories_segments":[],"categories_sizes":[],"default_left":[1,1,1,1,1,1,1,1,0,0,0,0,0,0,1,0,0,0,0],"id":63,"left_children":[1,3,5,7,9,11,13,15,-1,-1,-1,-1,-1,-1,17,-1,-1,-1,-1],"loss_changes":[1.0900522E-2,3.5039168E-3,3.3698664E-3,1.0741628E-2,8.848587E-3,2.8668667E-4,4.2384746E-3,2.7123485E-3,0E0,0E0,0E0,0E0,0E0,0E0,2.976448E-3,0E0,0E0,0E0,0E0],"parents":[2147483647,0,0,1,1,2,2,3,3,4,4,5,5,6,6,7,7,14,14],"right_children":[2,4,6,8,10,12,14,16,-1,-1,-1,-1,-1,-1,18,-1,-1,-1,-1],"split_conditions":[1.05E1,6.666667E-1,1.25E-1,7.5E0,7.5E0,1.8E1,3.6E1,1.6666667E-1,-4.5984723E-3,-3.4924156E-3,3.001388E-3,-5.2423525E-4,-0E0,1.7673916E-3,4.166667E-1,1.1025452E-3,-2.1112922E-3,8.828002E-4,-2.266267E-3],"split_indices":[3,2,2,3,3,3,3,2,0,0,0,0,0,0,2,0,0,0,0],"split_type":[0,0,0,0,0,0,0,0,0,0,0,0,0,0,0,0,0,0,0],"sum_hessian":[2.34E2,7.1E1,1.63E2,5.1E1,2E1,6E1,1.03E2,2.6E1,2.5E1,9E0,1.1E1,3.2E1,2.8E1,7.7E1,2.6E1,1.6E1,1E1,1.4E1,1.2E1],"tree_param":{"num_deleted":"0","num_feature":"4","num_nodes":"19","size_leaf_vector":"0"}},{"base_weights":[4.7105323E-3,-2.8046506E-4,1.0327553E-2,6.2868064E-3,-4.530996E-3,7.304809E-3,1.6257456E-2,-0E0,9.114875E-3],"categories":[],"categories_nodes":[],"categories_segments":[],"categories_sizes":[],"default_left":[1,1,1,0,0,1,0,0,0],"id":64,"left_children":[1,3,5,-1,-1,7,-1,-1,-1],"loss_changes":[7.4753407E-3,3.49165E-3,1.0922085E-3,0E0,0E0,1.2267679E-3,0E0,0E0,0E0],"parents":[2147483647,0,0,1,1,2,2,5,5],"right_children":[2,4,6,-1,-1,8,-1,-1,-1],"split_conditions":[2.916667E-1,1.25E-1,7.5E-1,9.660184E-4,-6.96224E-4,1.25E-1,2.4980889E-3,-0E0,1.400574E-3],"split_indices":[2,0,2,0,0,0,0,0,0],"split_type":[0,0,0,0,0,0,0,0,0],"sum_hessian":[2.5E2,1.28E2,1.22E2,4.6E1,8.2E1,8.6E1,3.6E1,1.6E1,7E1],"tree_param":{"num_deleted":"0","num_feature":"4","num_nodes":"9","size_leaf_vector":"0"}},{"base_weights":[-3.448194E-3,-1.1079839E-3,-1.4513874E-2,1.0455371E-3,-5.4027815E-3,2.2199466E-3,-0E0,-6.027859E-3,-0E0],"categories":[],"categories_nodes":[],"categories_segments":[],"categories_sizes":[],"default_left":[1,1,0,1,1,0,0,0,0],"id":65,"left_children":[1,3,-1,5,7,-1,-1,-1,-1],"loss_changes":[5.722601E-3,2.1354337E-3,0E0,1.4647657E-4,4.149624E-5,0E0,5.935881E-7,0E0,0E0],"parents":[2147483647,0,0,1,1,3,3,4,4],"right_children":[2,4,-1,6,8,-1,-1,-1,-1],"split_conditions":[7.5E-1,4.166667E-1,-2.2301737E-3,1.25E-1,3.75E-1,3.4111267E-4,-0E0,-9.2622906E-4,-0E0],"split_indices":[1,2,0,2,1,0,0,0,0],"split_type":[0,0,0,0,0,0,0,0,0],"sum_hessian":[2.49E2,2.09E2,4E1,1.32E2,7.7E1,5.9E1,7.3E1,6.3E1,1.4E1],"tree_param":{"num_deleted":"0","num_feature":"4","num_nodes":"9","size_leaf_vector":"0"}},{"base_weights":[-1.9260532E-3,1.438809E-4,-1.3721082E-2,2.9763605E-3,-1.2744048E-3,-0E0,1.0051351E-2,-6.575686E-3,8.7023503E-4,-3.6637657E-4,1.1125879E-3,1.972151E-2,-0E0,-0E0,1.5268844E-3,-1.099546E-3,1.0845609E-3],"categories":[],"categories_nodes":[],"categories_segments":[],"categories_sizes":[],"default_left":[1,1,0,1,1,1,1,0,1,0,0,0,0,1,0,0,0],"id":66,"left_children":[1,3,-1,5,7,9,11,-1,13,-1,-1,-1,-1,15,-1,-1,-1],"loss_changes":[7.44241E-3,1.0191061E-3,0E0,1.8385961E-3,1.9135817E-3,2.8325503E-5,2.4302073E-3,0E0,1.1493539E-6,0E0,0E0,0E0,0E0,7.698787E-5,0E0,0E0,0E0],"parents":[2147483647,0,0,1,1,3,3,4,4,5,5,6,6,8,8,13,13],"right_children":[2,4,-1,6,8,10,12,-1,14,-1,-1,-1,-1,16,-1,-1,-1],"split_conditions":[7.5E-1,2.916667E-1,-2.1083548E-3,1.25E-1,4.166667E-1,2.5E-1,3.75E-1,-1.0104071E-3,1.25E-1,-5.6296707E-5,1.7095808E-4,3.0303686E-3,-0E0,7.5E-1,2.3461807E-4,-1.6895408E-4,1.666515E-4],"split_indices":[1,0,0,0,0,1,1,0,1,0,0,0,0,0,0,0,0],"split_type":[0,0,0,0,0,0,0,0,0,0,0,0,0,0,0,0,0],"sum_hessian":[2.79E2,2.34E2,4.5E1,8.9E1,1.45E2,6.3E1,2.6E1,4.8E1,9.7E1,4.5E1,1.8E1,1.3E1,1.3E1,6.5E1,3.2E1,1.6E1,4.9E1],"tree_param":{"num_deleted":"0","num_feature":"4","num_nodes":"17","size_leaf_vector":"0"}},{"base_weights":[3.7985698E-3,9.340842E-3,-0E0,-1.999211E-3,1.6027205E-2,4.4936802E-2,-4.78844E-3,-5.788923E-3,2.1080198E-4,9.3342824E-5,-6.438253E-3,-0E0,4.8918915E-3,-3.6421814E-3,-2.0134253E-2,1.5230461E-4,-4.793702E-3,-8.777612E-3,6.987293E-3,4.817941E-3,-3.569563E-2,-1.593586E-2,-2.0918755E-3,1.200108E-2,-6.7864615E-3,4.4248183E-3,-6.46696E-3,-0E0,-1.2241383E-2],"categories":[],"categories_nodes":[],"categories_segments":[],"categories_sizes":[],"default_left":[1,1,1,1,0,0,1,0,0,1,1,1,0,1,1,0,0,1,1,0,0,0,1,0,0,0,1,0,0],"id":67,"left_children":[1,3,5,7,-1,-1,9,-1,-1,11,13,15,-1,17,19,-1,-1,21,23,-1,-1,-1,25,-1,-1,-1,27,-1,-1],"loss_changes":[5.3516203E-3,8.5374685E-3,3.3482466E-2,5.6060497E-4,0E0,0E0,1.4142129E-3,0E0,0E0,1.9126612E-4,3.1463886E-3,1.8417774E-4,0E0,5.2692224E-3,7.648245E-3,0E0,0E0,2.369266E-3,2.1762387E-3,0E0,0E0,0E0,1.1784213E-3,0E0,0E0,0E0,1.1188841E-3,0E0,0E0],"parents":[2147483647,0,0,1,1,2,2,3,3,6,6,9,9,10,10,11,11,13,13,14,14,17,17,18,18,22,22,26,26],"right_children":[2,4,6,8,-1,-1,10,-1,-1,12,14,16,-1,18,20,-1,-1,22,24,-1,-1,-1,26,-1,-1,-1,28,-1,-1],"split_conditions":[1.25E-1,1.05E1,7.5E0,7.5E0,2.462709E-3,6.9049015E-3,2.916667E-1,-8.895146E-4,3.239142E-5,3.6E1,3.6E1,1.8E1,7.516785E-4,1.8E1,4.166667E-1,2.3402828E-5,-7.3659094E-4,4.166667E-1,7.5E-1,7.403154E-4,-5.484921E-3,-2.4486731E-3,1.05E1,1.8440626E-3,-1.0427944E-3,6.7990896E-4,7.5E-1,-0E0,-1.880987E-3],"split_indices":[2,3,3,3,0,0,2,0,0,3,3,3,0,3,2,0,0,2,2,0,0,0,3,0,0,0,2,0,0],"split_type":[0,0,0,0,0,0,0,0,0,0,0,0,0,0,0,0,0,0,0,0,0,0,0,0,0,0,0,0,0],"sum_hessian":[2.58E2,1.04E2,1.54E2,3.6E1,6.8E1,1.5E1,1.39E2,2.1E1,1.5E1,2.8E1,1.11E2,2E1,8E0,9.5E1,1.6E1,1.2E1,8E0,6.7E1,2.8E1,5E0,1.1E1,2.9E1,3.8E1,2.3E1,5E0,1.1E1,2.7E1,1.2E1,1.5E1],"tree_param":{"num_deleted":"0","num_feature":"4","num_nodes":"29","size_leaf_vector":"0"}},{"base_weights":[-9.854446E-4,1.9727538E-3,-6.9244755E-3,5.705217E-3,-1.0318668E-2,-4.2835507E-3,-1.0341665E-2,3.3821256E-3,8.868584E-3,-0E0,-7.102265E-3,-1.4529683E-2,-2.4977948E-3,5.4386565E-3,-0E0],"categories":[],"categories_nodes":[],"categories_segments":[],"categories_sizes":[],"default_left":[1,1,1,1,0,1,1,1,0,0,0,0,0,0,0],"id":68,"left_children":[1,3,5,7,-1,9,11,13,-1,-1,-1,-1,-1,-1,-1],"loss_changes":[4.762819E-3,7.4475263E-3,1.4189072E-4,3.93664E-4,0E0,9.856368E-4,2.6038336E-4,6.3645776E-4,0E0,0E0,0E0,0E0,0E0,0E0,9.710129E-7],"parents":[2147483647,0,0,1,1,2,2,3,3,5,5,6,6,7,7],"right_children":[2,4,6,8,-1,10,12,14,-1,-1,-1,-1,-1,-1,-1],"split_conditions":[4.166667E-1,7.5E-1,1.25E-1,2.916667E-1,-1.5855463E-3,7.5E-1,3.75E-1,1.25E-1,1.3627294E-3,-0E0,-1.0913202E-3,-2.2326026E-3,-3.8380627E-4,8.356933E-4,-0E0],"split_indices":[2,0,0,2,0,2,0,2,0,0,0,0,0,0,0],"split_type":[0,0,0,0,0,0,0,0,0,0,0,0,0,0,0],"sum_hessian":[2.58E2,1.67E2,9.1E1,1.31E2,3.6E1,5.9E1,3.2E1,8.4E1,4.7E1,1.8E1,4.1E1,1.7E1,1.5E1,5.4E1,3E1],"tree_param":{"num_deleted":"0","num_feature":"4","num_nodes":"15","size_leaf_vector":"0"}},{"base_weights":[2.2873802E-3,5.020112E-3,5.270563E-4,-4.977181E-3,9.056271E-3,-7.678E-3,2.6494837E-3,-3.1149227E-4,-2.1204924E-2,9.881166E-4,8.034609E-3,-0E0,-1.0147933E-3,2.8445427E-3,-3.1517416E-3,1.8608464E-3,2.8820543E-2,-6.1816885E-3,2.868302E-4,-0E0,-8.18112E-3],"categories":[],"categories_nodes":[],"categories_segments":[],"categories_sizes":[],"default_left":[1,1,1,0,0,1,1,1,0,1,1,0,0,0,1,0,0,1,0,0,0],"id":69,"left_children":[1,3,5,-1,-1,7,9,11,-1,13,15,-1,-1,-1,17,-1,-1,19,-1,-1,-1],"loss_changes":[9.4980944E-4,3.740539E-3,2.605147E-3,0E0,0E0,1.8906954E-3,7.7980943E-4,6.203412E-6,0E0,8.234801E-4,1.7834378E-3,0E0,0E0,0E0,5.4469716E-4,0E0,0E0,4.023527E-4,0E0,0E0,0E0],"parents":[2147483647,0,0,1,1,2,2,5,5,6,6,7,7,9,9,10,10,14,14,17,17],"right_children":[2,4,6,-1,-1,8,10,12,-1,14,16,-1,-1,-1,18,-1,-1,20,-1,-1,-1],"split_conditions":[1.25E-1,7.5E0,2.916667E-1,-7.6478394E-4,1.3915689E-3,3.6E1,3.6E1,1.8E1,-3.2583072E-3,1.8E1,7.5E-1,-0E0,-1.5593115E-4,4.3708688E-4,7.5E-1,2.8593402E-4,4.428508E-3,4.166667E-1,4.407377E-5,-0E0,-1.257095E-3],"split_indices":[0,3,0,0,0,3,3,3,0,3,0,0,0,0,0,0,0,0,0,0,0],"split_type":[0,0,0,0,0,0,0,0,0,0,0,0,0,0,0,0,0,0,0,0,0],"sum_hessian":[2.51E2,8.8E1,1.63E2,2.2E1,6.6E1,2.9E1,1.34E2,2.1E1,8E0,1.09E2,2.5E1,1.3E1,8E0,8.3E1,2.6E1,2.1E1,4E0,2.1E1,5E0,3E0,1.8E1],"tree_param":{"num_deleted":"0","num_feature":"4","num_nodes":"21","size_leaf_vector":"0"}},{"base_weights":[9.1651E-4,1.8339582E-2,-2.0013822E-3,3.287023E-2,-1.7701017E-2,-4.851657E-3,6.029829E-3,-1.1283082E-2,-3.0869522E-4,1.9267123E-2,-2.4117737E-3,-2.424153E-3,-1.4395462E-2,4.1557443E-3,-4.0469626E-3,-0E0,-3.5956746E-3,-4.0847898E-4,9.349572E-3,3.0987514E-3,-6.6521233E-3,-0E0,1.2946305E-2,1.6528467E-2,-0E0],"categories":[],"categories_nodes":[],"categories_segments":[],"categories_sizes":[],"default_left":[1,1,1,0,0,1,1,1,1,0,1,0,0,1,1,0,0,0,1,0,0,0,1,0,0],"id":70,"left_children":[1,3,5,-1,-1,7,9,11,13,-1,15,-1,-1,17,19,-1,-1,-1,21,-1,-1,-1,23,-1,-1],"loss_changes":[1.3417864E-2,2.060787E-2,4.775458E-3,0E0,0E0,4.136543E-3,6.482196E-3,9.283032E-4,1.6305876E-3,0E0,1.0284291E-4,0E0,0E0,1.3398563E-3,1.2634664E-3,0E0,0E0,0E0,3.361809E-4,0E0,0E0,0E0,6.588851E-4,0E0,0E0],"parents":[2147483647,0,0,1,1,2,2,5,5,6,6,7,7,8,8,10,10,13,13,14,14,18,18,22,22],"right_children":[2,4,6,-1,-1,8,10,12,14,-1,16,-1,-1,18,20,-1,-1,-1,22,-1,-1,-1,24,-1,-1],"split_conditions":[7.5E0,6.666667E-1,3.6E1,5.050775E-3,-2.7199036E-3,1.25E-1,2.916667E-1,1.05E1,4.166667E-1,2.9605485E-3,4.166667E-1,-3.724906E-4,-2.2119787E-3,2.916667E-1,1.05E1,-0E0,-5.525043E-4,-6.2766085E-5,1.05E1,4.761481E-4,-1.0221523E-3,-0E0,1.8E1,2.539732E-3,-0E0],"split_indices":[3,2,3,0,0,2,2,3,2,0,2,0,0,2,3,0,0,0,3,0,0,0,3,0,0],"split_type":[0,0,0,0,0,0,0,0,0,0,0,0,0,0,0,0,0,0,0,0,0,0,0,0,0],"sum_hessian":[2.49E2,3.8E1,2.11E2,2.8E1,1E1,1.6E2,5.1E1,6.2E1,9.8E1,2.2E1,2.9E1,2E1,4.2E1,3.9E1,5.9E1,8E0,2.1E1,1.6E1,2.3E1,1.1E1,4.8E1,9E0,1.4E1,1.1E1,3E0],"tree_param":{"num_deleted":"0","num_feature":"4","num_nodes":"25","size_leaf_vector":"0"}},{"base_weights":[-1.2094136E-3,9.856796E-4,-1.8638274E-2,-9.838828E-3,3.088145E-3,6.612909E-3,9.7520686E-5,6.6275476E-4,7.575684E-3,-6.2415875E-3,1.2593962E-3,4.077732E-3,-2.6477117E-3,-5.5499836E-3,9.064072E-3,1.583649E-4,-9.484166E-3,1.4347599E-2,5.0084437E-3],"categories":[],"categories_nodes":[],"categories_segments":[],"categories_sizes":[],"default_left":[1,1,0,0,1,1,1,0,0,0,1,1,1,0,1,0,0,0,0],"id":71,"left_children":[1,3,-1,-1,5,7,9,-1,-1,-1,11,13,15,-1,17,-1,-1,-1,-1],"loss_changes":[1.0614044E-2,4.807204E-3,0E0,0E0,1.7122903E-3,8.140155E-5,5.861944E-4,0E0,0E0,0E0,1.1676287E-3,3.2839337E-3,1.104606E-3,0E0,8.658902E-5,0E0,0E0,0E0,0E0],"parents":[2147483647,0,0,1,1,4,4,5,5,6,6,10,10,11,11,12,12,14,14],"right_children":[2,4,-1,-1,6,8,10,-1,-1,-1,12,14,16,-1,18,-1,-1,-1,-1],"split_conditions":[7.5E-1,7.5E0,-2.8639208E-3,-1.5118151E-3,1.25E-1,1.05E1,1.05E1,1.018376E-4,1.1640649E-3,-9.5907017E-4,3.6E1,2.916667E-1,4.166667E-1,-8.527996E-4,4.166667E-1,2.4334042E-5,-1.4573184E-3,2.204624E-3,7.695877E-4],"split_indices":[2,3,0,0,2,3,3,0,0,0,3,2,2,0,2,0,0,0,0],"split_type":[0,0,0,0,0,0,0,0,0,0,0,0,0,0,0,0,0,0,0],"sum_hessian":[2.56E2,2.25E2,3.1E1,3.3E1,1.92E2,8.1E1,1.11E2,1.8E1,6.3E1,1.1E1,1E2,6.5E1,3.5E1,1.9E1,4.6E1,2E1,1.5E1,1.5E1,3.1E1],"tree_param":{"num_deleted":"0","num_feature":"4","num_nodes":"19","size_leaf_vector":"0"}},{"base_weights":[6.703864E-4,1.3812644E-2,-6.5592984E-3,1.802911E-2,-0E0,-1.3161052E-2,-8.448424E-4,1.00332E-2,2.510083E-2,-1.0591239E-2,1.2288219E-2,-5.6973044E-2,-5.082772E-3,1.6117996E-2,-3.8329263E-3,-6.561121E-3,-0E0,-1.8277543E-2,-7.6761615E-4,-0E0,-7.547341E-3,-2.5008167E-3,1.3704009E-3,-0E0,-4.8428206E-3,3.599354E-3,-5.0566886E-3,-6.7553264E-3,-0E0],"categories":[],"categories_nodes":[],"categories_segments":[],"categories_sizes":[],"default_left":[1,1,1,1,1,1,1,0,0,0,0,0,1,0,1,1,0,0,1,0,0,1,0,1,1,0,0,0,0],"id":72,"left_children":[1,3,5,7,9,11,13,-1,-1,-1,-1,-1,15,-1,17,19,-1,-1,21,-1,-1,23,-1,25,27,-1,-1,-1,-1],"loss_changes":[2.4090972E-2,4.7418736E-3,5.3479318E-3,2.2127684E-3,3.0466397E-3,2.1892875E-2,3.9408333E-3,0E0,0E0,0E0,0E0,0E0,4.7324318E-4,0E0,2.5691823E-3,1.4133705E-4,0E0,0E0,3.00796E-4,0E0,0E0,1.3920211E-4,0E0,5.906016E-4,1.9333724E-4,0E0,0E0,0E0,0E0],"parents":[2147483647,0,0,1,1,2,2,3,3,4,4,5,5,6,6,12,12,14,14,15,15,18,18,21,21,23,23,24,24],"right_children":[2,4,6,8,10,12,14,-1,-1,-1,-1,-1,16,-1,18,20,-1,-1,22,-1,-1,24,-1,26,28,-1,-1,-1,-1],"split_conditions":[1.25E-1,1.8E1,4.166667E-1,1.05E1,3.6E1,7.5E0,7.5E0,1.5416818E-3,3.8569444E-3,-1.627429E-3,1.8881838E-3,-8.754367E-3,3.6E1,2.4766598E-3,1.05E1,1.05E1,-0E0,-2.8084915E-3,3.6E1,-0E0,-1.1597096E-3,7.5E-1,2.1057313E-4,1.8E1,1.8E1,5.530697E-4,-7.770009E-4,-1.0380102E-3,-0E0],"split_indices":[1,3,1,3,3,3,3,0,0,0,0,0,3,0,3,3,0,0,3,0,0,1,0,3,3,0,0,0,0],"split_type":[0,0,0,0,0,0,0,0,0,0,0,0,0,0,0,0,0,0,0,0,0,0,0,0,0,0,0,0,0],"sum_hessian":[2.5E2,9.1E1,1.59E2,6.8E1,2.3E1,7E1,8.9E1,3.5E1,3.3E1,1.1E1,1.2E1,1E1,6E1,1.1E1,7.8E1,4.7E1,1.3E1,1.1E1,6.7E1,9E0,3.8E1,4.9E1,1.8E1,3E1,1.9E1,1.4E1,1.6E1,1.4E1,5E0],"tree_param":{"num_deleted":"0","num_feature":"4","num_nodes":"29","size_leaf_vector":"0"}},{"base_weights":[-3.6138725E-3,-2.173063E-2,-6.445283E-4,-4.313262E-3,3.6619694E-3,4.7980216E-3,-8.9329425E-3,4.7076056E-3,-4.77176E-4,6.933809E-3,-0E0,-0E0,7.2801043E-3,-4.9620955E-3,-0E0,1.009075E-2,2.7487678E-3,1.393176E-2,1.4179985E-3,1.8034412E-2,3.531646E-5],"categories":[],"categories_nodes":[],"categories_segments":[],"categories_sizes":[],"default_left":[1,0,1,1,1,1,0,1,1,0,0,0,1,0,0,1,0,1,0,0,0],"id":73,"left_children":[1,-1,3,5,7,9,-1,11,13,-1,-1,-1,15,-1,-1,17,-1,19,-1,-1,-1],"loss_changes":[1.240965E-2,0E0,3.4588028E-3,5.369491E-3,6.033294E-4,4.2336778E-4,0E0,1.00051E-3,1.4552391E-4,0E0,0E0,0E0,9.138952E-5,0E0,0E0,1.865679E-4,0E0,1.6115839E-5,0E0,0E0,0E0],"parents":[2147483647,0,0,2,2,3,3,4,4,5,5,7,7,8,8,12,12,15,15,17,17],"right_children":[2,-1,4,6,8,10,-1,12,14,-1,-1,-1,16,-1,-1,18,-1,20,-1,-1,-1],"split_conditions":[7.5E0,-3.3390862E-3,1.8E1,1.05E1,7.5E-1,6.666667E-1,-1.3726185E-3,1.25E-1,3.6E1,1.0654355E-3,-0E0,-0E0,4.166667E-1,-7.6246593E-4,-0E0,3.6E1,4.223703E-4,2.916667E-1,2.1788687E-4,2.7711324E-3,5.4266584E-6],"split_indices":[3,0,3,3,1,1,0,1,3,0,0,0,1,0,0,3,0,1,0,0,0],"split_type":[0,0,0,0,0,0,0,0,0,0,0,0,0,0,0,0,0,0,0,0,0],"sum_hessian":[2.5E2,3.3E1,2.17E2,1.23E2,9.4E1,3.8E1,8.5E1,8.4E1,1E1,2.7E1,1.1E1,3E1,5.4E1,6E0,4E0,2.7E1,2.7E1,1.5E1,1.2E1,9E0,6E0],"tree_param":{"num_deleted":"0","num_feature":"4","num_nodes":"21","size_leaf_vector":"0"}},{"base_weights":[-7.1978923E-3,-1.959048E-2,-5.0809733E-3,1.5680533E-3,-5.3128123E-2,8.207067E-3,-8.183671E-3,-8.0715515E-2,-8.587899E-3,3.017727E-3,1.601033E-2,-1.0937863E-2,-5.3487965E-3,-1.9818466E-2,-6.1554457E-3,-2.1304006E-3,-1.0280098E-2,1.9422997E-3,-8.810009E-3,-3.5405974E-3,9.814473E-4,-2.3472495E-3,-1.6701687E-2,-1.7679714E-2,-3.7907755E-3],"categories":[],"categories_nodes":[],"categories_segments":[],"categories_sizes":[],"default_left":[1,1,1,0,1,1,1,0,0,0,0,1,1,0,1,1,1,0,1,0,0,0,0,0,0],"id":74,"left_children":[1,3,5,-1,7,9,11,-1,-1,-1,-1,13,15,-1,17,19,21,-1,23,-1,-1,-1,-1,-1,-1],"loss_changes":[5.5436688E-3,2.6523443E-2,9.110767E-3,0E0,1.3056379E-2,6.9550634E-4,6.6446885E-4,0E0,0E0,0E0,0E0,2.361007E-3,9.789427E-4,0E0,1.5658322E-3,4.0411804E-4,7.964019E-4,0E0,1.1396913E-3,0E0,0E0,0E0,0E0,0E0,0E0],"parents":[2147483647,0,0,1,1,2,2,4,4,5,5,6,6,11,11,12,12,14,14,15,15,16,16,18,18],"right_children":[2,4,6,-1,8,10,12,-1,-1,-1,-1,14,16,-1,18,20,22,-1,24,-1,-1,-1,-1,-1,-1],"split_conditions":[7.5E0,1.6666667E-1,1.05E1,2.40944E-4,6.666667E-1,6.666667E-1,1.8E1,-1.24025885E-2,-1.3195997E-3,4.6369806E-4,2.4601158E-3,1.25E-1,4.166667E-1,-3.0452667E-3,2.916667E-1,2.916667E-1,3.6E1,2.9844997E-4,4.166667E-1,-5.440413E-4,1.5080727E-4,-3.606738E-4,-2.5663485E-3,-2.7166302E-3,-5.824832E-4],"split_indices":[3,2,3,0,2,2,3,0,0,0,0,2,2,0,2,2,3,0,2,0,0,0,0,0,0],"split_type":[0,0,0,0,0,0,0,0,0,0,0,0,0,0,0,0,0,0,0,0,0,0,0,0,0],"sum_hessian":[2.55E2,3.4E1,2.21E2,2E1,1.4E1,3.9E1,1.82E2,8E0,6E0,2.7E1,1.2E1,8.4E1,9.8E1,2.6E1,5.8E1,6.5E1,3.3E1,1E1,4.8E1,5.5E1,1E1,1.8E1,1.5E1,1.4E1,3.4E1],"tree_param":{"num_deleted":"0","num_feature":"4","num_nodes":"25","size_leaf_vector":"0"}},{"base_weights":[1.973398E-3,4.767428E-3,-2.171409E-3,1.2191591E-3,1.3798877E-2,-0E0,-4.3185204E-3,-0E0,2.59152E-3,1.617901E-4,-1.0251051E-3,2.3984616E-3,-1.5544323E-3,-3.6742112E-3,-0E0,-1.8155999E-3,1.4901347E-3],"categories":[],"categories_nodes":[],"categories_segments":[],"categories_sizes":[],"default_left":[1,1,1,1,0,1,0,1,0,0,0,0,1,0,1,0,0],"id":75,"left_children":[1,3,5,7,-1,9,-1,11,-1,-1,-1,-1,13,-1,15,-1,-1],"loss_changes":[3.1316143E-3,4.494005E-3,3.9584885E-4,1.238713E-4,0E0,2.0832715E-5,0E0,3.04687E-4,0E0,0E0,0E0,0E0,1.2420959E-4,0E0,5.9625094E-5,0E0,0E0],"parents":[2147483647,0,0,1,1,2,2,3,3,5,5,7,7,12,12,14,14],"right_children":[2,4,6,8,-1,10,-1,12,-1,-1,-1,-1,14,-1,16,-1,-1],"split_conditions":[4.166667E-1,2.916667E-1,7.5E-1,7.5E-1,2.1203083E-3,3.75E-1,-6.635754E-4,1.25E-1,3.9820792E-4,2.486035E-5,-1.5751565E-4,3.685429E-4,1.25E-1,-5.645721E-4,3.75E-1,-2.7898152E-4,2.289712E-4],"split_indices":[1,1,1,0,0,0,0,0,0,0,0,0,1,0,0,0,0],"split_type":[0,0,0,0,0,0,0,0,0,0,0,0,0,0,0,0,0],"sum_hessian":[2.6E2,1.62E2,9.8E1,1.2E2,4.2E1,5.2E1,4.6E1,7.5E1,4.5E1,3.3E1,1.9E1,3.7E1,3.8E1,1.6E1,2.2E1,1E1,1.2E1],"tree_param":{"num_deleted":"0","num_feature":"4","num_nodes":"17","size_leaf_vector":"0"}},{"base_weights":[3.762221E-3,1.5489769E-2,1.4854491E-3,7.453823E-3,3.253579E-2,-0E0,3.4233308E-3,2.4295935E-2,-3.4025017E-2,3.906501E-4,-6.0120045E-4,3.8108032E-3,-0E0,3.7193408E-3,-3.2501717E-4,-8.536995E-3,1.9529588E-3,-0E0,1.0595614E-2,-5.610834E-4,-0E0],"categories":[],"categories_nodes":[],"categories_segments":[],"categories_sizes":[],"default_left":[1,1,1,1,0,1,1,0,0,1,1,0,0,1,1,0,0,0,0,0,0],"id":76,"left_children":[1,3,5,7,-1,9,11,-1,-1,13,15,-1,-1,17,19,-1,-1,-1,-1,-1,-1],"loss_changes":[5.833457E-3,3.2107485E-3,5.305733E-4,1.8414272E-2,0E0,2.4868477E-5,1.8017611E-4,0E0,0E0,3.9349534E-4,8.5315714E-4,0E0,0E0,8.340344E-4,1.05504705E-5,0E0,0E0,0E0,0E0,0E0,0E0],"parents":[2147483647,0,0,1,1,2,2,3,3,5,5,6,6,9,9,10,10,13,13,14,14],"right_children":[2,4,6,8,-1,10,12,-1,-1,14,16,-1,-1,18,20,-1,-1,-1,-1,-1,-1],"split_conditions":[7.5E0,6.666667E-1,1.8E1,1.6666667E-1,4.999386E-3,7.5E-1,7.5E-1,3.733266E-3,-5.2282177E-3,1.05E1,1.05E1,5.8556057E-4,-0E0,1.6666667E-1,4.166667E-1,-1.3117781E-3,3.0008782E-4,-0E0,1.6281013E-3,-8.6214975E-5,-0E0],"split_indices":[3,2,3,2,0,2,2,0,0,3,3,0,0,2,2,0,0,0,0,0,0],"split_type":[0,0,0,0,0,0,0,0,0,0,0,0,0,0,0,0,0,0,0,0,0],"sum_hessian":[2.48E2,3.7E1,2.11E2,2.7E1,1E1,1.26E2,8.5E1,2E1,7E0,9.9E1,2.7E1,8.1E1,4E0,2.9E1,7E1,1.1E1,1.6E1,1.8E1,1.1E1,5.7E1,1.3E1],"tree_param":{"num_deleted":"0","num_feature":"4","num_nodes":"21","size_leaf_vector":"0"}},{"base_weights":[1.7589562E-3,-9.147365E-4,1.7250821E-2,7.2677922E-3,-4.1521234E-3,2.2626258E-2,-0E0,-7.3454337E-4,-7.968742E-3,-4.7669252E-3,2.1623557E-3,-1.3560545E-2,-3.1168936E-3,8.01077E-3,-2.1757693E-3,-2.1388035E-2,-3.5241502E-4,2.7675643E-3,-7.2148214E-3,2.982086E-4,1.360316E-2,1.0338908E-3,-1.3995644E-2],"categories":[],"categories_nodes":[],"categories_segments":[],"categories_sizes":[],"default_left":[1,1,1,0,1,0,0,1,1,0,1,1,1,1,1,0,0,0,0,0,0,0,0],"id":77,"left_children":[1,3,5,-1,7,-1,-1,9,11,-1,13,15,17,19,21,-1,-1,-1,-1,-1,-1,-1,-1],"loss_changes":[1.1859551E-2,5.8421944E-3,3.372145E-3,0E0,1.7610462E-3,0E0,0E0,1.219077E-3,1.178802E-3,0E0,1.4889302E-3,1.9887672E-3,1.243572E-3,4.3276942E-4,1.4747012E-3,0E0,0E0,0E0,0E0,0E0,0E0,0E0,0E0],"parents":[2147483647,0,0,1,1,2,2,4,4,7,7,8,8,10,10,11,11,12,12,13,13,14,14],"right_children":[2,4,6,-1,8,-1,-1,10,12,-1,14,16,18,20,22,-1,-1,-1,-1,-1,-1,-1,-1],"split_conditions":[7.5E-1,1.05E1,1.8E1,1.1167547E-3,2.916667E-1,3.4767068E-3,-0E0,1.8E1,4.166667E-1,-7.324764E-4,3.6E1,1.8E1,1.8E1,1.25E-1,1.25E-1,-3.2864437E-3,-5.4151405E-5,4.2525853E-4,-1.1086154E-3,4.5822148E-5,2.090235E-3,1.5886563E-4,-2.1505433E-3],"split_indices":[0,3,3,0,0,0,0,3,0,0,3,3,3,0,0,0,0,0,0,0,0,0,0],"split_type":[0,0,0,0,0,0,0,0,0,0,0,0,0,0,0,0,0,0,0,0,0,0,0],"sum_hessian":[2.68E2,2.26E2,4.2E1,6E1,1.66E2,3.1E1,1.1E1,9.4E1,7.2E1,4.6E1,4.8E1,2.9E1,4.3E1,2.5E1,2.3E1,1.6E1,1.3E1,1.3E1,3E1,1.4E1,1.1E1,1.5E1,8E0],"tree_param":{"num_deleted":"0","num_feature":"4","num_nodes":"23","size_leaf_vector":"0"}},{"base_weights":[7.485757E-4,-1.0377344E-2,2.7803911E-3,-0E0,-1.9304879E-2,1.6579815E-3,8.340212E-3,-4.3130223E-2,-0E0,-7.508094E-3,3.4613134E-3,3.5295494E-2,-0E0,7.7335155E-3,-0E0,-8.044754E-3,1.0048748E-2,1.08935125E-2,-8.19153E-4,-2.1422708E-3,3.5627454E-3,7.2128763E-3,1.765008E-2,-0E0,-5.335569E-3,-1.3919902E-4,1.2544002E-2,1.2042175E-2,-9.9095E-4,2.6330973E-3,-8.770211E-3,-1.528727E-2,-0E0],"categories":[],"categories_nodes":[],"categories_segments":[],"categories_sizes":[],"default_left":[1,1,1,0,1,1,1,0,0,0,1,0,1,1,1,0,0,1,0,1,1,1,0,1,1,0,0,0,0,0,0,0,0],"id":78,"left_children":[1,3,5,-1,7,9,11,-1,-1,-1,13,-1,15,17,19,-1,-1,21,-1,23,25,27,-1,29,31,-1,-1,-1,-1,-1,-1,-1,-1],"loss_changes":[5.4343995E-3,3.577477E-3,9.085153E-4,0E0,7.432217E-3,2.95277E-3,